{"learner":{"attributes":{"scikit_learn":"{\"_estimator_type\": \"classifier\"}"},"feature_names":["0","1","2","3","4","5","6"],"feature_types":["float","float","float","float","float","float","float"],"gradient_booster":{"model":{"gbtree_model_param":{"num_parallel_tree":"1","num_trees":"300"},"iteration_indptr":[0,3,6,9,12,15,18,21,24,27,30,33,36,39,42,45,48,51,54,57,60,63,66,69,72,75,78,81,84,87,90,93,96,99,102,105,108,111,114,117,120,123,126,129,132,135,138,141,144,147,150,153,156,159,162,165,168,171,174,177,180,183,186,189,192,195,198,201,204,207,210,213,216,219,222,225,228,231,234,237,240,243,246,249,252,255,258,261,264,267,270,273,276,279,282,285,288,291,294,297,300],"tree_info":[0,1,2,0,1,2,0,1,2,0,1,2,0,1,2,0,1,2,0,1,2,0,1,2,0,1,2,0,1,2,0,1,2,0,1,2,0,1,2,0,1,2,0,1,2,0,1,2,0,1,2,0,1,2,0,1,2,0,1,2,0,1,2,0,1,2,0,1,2,0,1,2,0,1,2,0,1,2,0,1,2,0,1,2,0,1,2,0,1,2,0,1,2,0,1,2,0,1,2,0,1,2,0,1,2,0,1,2,0,1,2,0,1,2,0,1,2,0,1,2,0,1,2,0,1,2,0,1,2,0,1,2,0,1,2,0,1,2,0,1,2,0,1,2,0,1,2,0,1,2,0,1,2,0,1,2,0,1,2,0,1,2,0,1,2,0,1,2,0,1,2,0,1,2,0,1,2,0,1,2,0,1,2,0,1,2,0,1,2,0,1,2,0,1,2,0,1,2,0,1,2,0,1,2,0,1,2,0,1,2,0,1,2,0,1,2,0,1,2,0,1,2,0,1,2,0,1,2,0,1,2,0,1,2,0,1,2,0,1,2,0,1,2,0,1,2,0,1,2,0,1,2,0,1,2,0,1,2,0,1,2,0,1,2,0,1,2,0,1,2,0,1,2,0,1,2,0,1,2,0,1,2,0,1,2,0,1,2,0,1,2,0,1,2,0,1,2,0,1,2],"trees":[{"base_weights":[2.1457009E-1,9.126771E-1,-4.1060755E-1,1.2152805E0,-1.8701303E-1,-1.043261E-1,-6.1579394E-1,1.3375398E0,8.9020514E-1,3.234501E-1,-4.269378E-1,2.6198885E-1,-2.4324329E-1,7.9999995E-1,-6.21242E-1,1.3723667E0,8.448E-1,9.996557E-1,3.132743E-1,5.85266E-1,-1.7737794E-1,-2.8415763E-1,-5.683943E-1,4.6063757E-1,-4.172186E-1,3.9759034E-1,-2.7486444E-1,3.2727274E-1,-7.663455E-9,-7.1377903E-1,-5.7214075E-1,1.43773E0,1.234537E0,4.897959E-1,1.0488431E0,1.050505E0,3.9834023E-1,5.9999996E-1,2.0761203E-2,-3.1578952E-1,6.525547E-1,-4.8000005E-1,2.2543348E-1,-3.6045417E-1,2.8965515E-1,3.8961E-2,-6.0595137E-1,6.5934025E-2,5.420267E-1,3.1578943E-1,-5.1111114E-1,6.213018E-1,-6.7415774E-2,-2.1201679E-1,-5.4810816E-1,-7.2098774E-1,1.2413793E-1,-4.966888E-1,-6.443633E-1,4.3376997E-1,3.1034482E-1,3.7184465E-1,7.2E-2,1.873303E-1,-1.6363637E-1,2.3268293E-1,3.8704664E-1,2.1085715E-1,3.3922112E-1,-1.6363637E-1,1.5760368E-1,3.4615386E-1,1.2576419E-1,-1.23529434E-1,1.4275861E-1,-1.2000001E-1,-7.663455E-9,3.031579E-1,1.1662591E-1,7.2E-2,-1.6363639E-1,1.1476509E-1,-1.6363637E-1,-1.2642144E-1,-5.325457E-3,-1.0975611E-1,1.5132743E-1,-9.473686E-2,2.1724138E-1,-1.8688998E-1,-8.630139E-2,1.7999999E-1,-2.9032271E-2,2.0927246E-1,1.0378657E-1,-2.4324335E-2,2.1724138E-1,-1.6488552E-1,1.2857142E-1,2.178344E-1,-1.2857145E-1,-1.47541E-1,1.9459459E-1,-1.4862388E-1,-3.641957E-2,-1.2783112E-1,-2.0702182E-1,-7.346941E-2,-2.1769768E-1,-2.0610701E-2,-1.6490775E-1,-1.977015E-1,-6.2790714E-2],"categories":[],"categories_nodes":[],"categories_segments":[],"categories_sizes":[],"default_left":[0,0,0,0,0,0,0,0,0,0,0,0,0,0,0,0,0,0,0,0,0,0,0,0,0,0,0,0,0,0,0,0,0,0,0,0,0,0,0,0,0,0,0,0,0,0,0,0,0,0,0,0,0,0,0,0,0,0,0,0,0,0,0,0,0,0,0,0,0,0,0,0,0,0,0,0,0,0,0,0,0,0,0,0,0,0,0,0,0,0,0,0,0,0,0,0,0,0,0,0,0,0,0,0,0,0,0,0,0,0,0,0,0],"id":0,"left_children":[1,3,5,7,9,11,13,15,17,19,21,23,25,27,29,31,33,35,37,39,41,43,45,47,49,51,53,-1,-1,55,57,59,61,63,65,67,69,71,73,75,77,79,81,83,85,87,89,91,93,95,97,99,101,103,105,107,-1,109,111,-1,-1,-1,-1,-1,-1,-1,-1,-1,-1,-1,-1,-1,-1,-1,-1,-1,-1,-1,-1,-1,-1,-1,-1,-1,-1,-1,-1,-1,-1,-1,-1,-1,-1,-1,-1,-1,-1,-1,-1,-1,-1,-1,-1,-1,-1,-1,-1,-1,-1,-1,-1,-1,-1],"loss_changes":[1.6445444E3,5.925947E2,1.24878204E2,5.4295654E1,4.72901E1,4.0711487E1,9.678375E0,1.6216675E1,2.3969788E1,1.6319569E1,5.136875E0,2.9890385E1,1.1855583E1,1.1636364E0,4.981903E0,6.7304688E0,4.516571E0,9.450958E0,5.252779E0,5.1441193E0,5.3769817E0,5.9076796E0,3.0067177E0,5.4504204E0,3.6255455E0,2.9199705E0,9.380306E0,0E0,0E0,3.608368E0,3.9310608E0,5.942383E-1,1.2310181E0,4.1349573E0,1.8491821E0,7.489319E0,3.496324E0,2.6870003E0,6.5167875E0,1.6842097E-1,6.7945976E0,1.3090906E0,2.5368493E0,2.4456873E0,2.452722E0,2.3082473E0,4.881096E-1,2.6939385E0,4.072529E0,1.0851033E0,1.8638554E0,2.3775034E0,3.32413E0,1.152763E1,1.4860992E0,7.229614E-1,0E0,8.716064E0,2.3796692E0,0E0,0E0,0E0,0E0,0E0,0E0,0E0,0E0,0E0,0E0,0E0,0E0,0E0,0E0,0E0,0E0,0E0,0E0,0E0,0E0,0E0,0E0,0E0,0E0,0E0,0E0,0E0,0E0,0E0,0E0,0E0,0E0,0E0,0E0,0E0,0E0,0E0,0E0,0E0,0E0,0E0,0E0,0E0,0E0,0E0,0E0,0E0,0E0,0E0,0E0,0E0,0E0,0E0,0E0],"parents":[2147483647,0,0,1,1,2,2,3,3,4,4,5,5,6,6,7,7,8,8,9,9,10,10,11,11,12,12,13,13,14,14,15,15,16,16,17,17,18,18,19,19,20,20,21,21,22,22,23,23,24,24,25,25,26,26,29,29,30,30,31,31,32,32,33,33,34,34,35,35,36,36,37,37,38,38,39,39,40,40,41,41,42,42,43,43,44,44,45,45,46,46,47,47,48,48,49,49,50,50,51,51,52,52,53,53,54,54,55,55,57,57,58,58],"right_children":[2,4,6,8,10,12,14,16,18,20,22,24,26,28,30,32,34,36,38,40,42,44,46,48,50,52,54,-1,-1,56,58,60,62,64,66,68,70,72,74,76,78,80,82,84,86,88,90,92,94,96,98,100,102,104,106,108,-1,110,112,-1,-1,-1,-1,-1,-1,-1,-1,-1,-1,-1,-1,-1,-1,-1,-1,-1,-1,-1,-1,-1,-1,-1,-1,-1,-1,-1,-1,-1,-1,-1,-1,-1,-1,-1,-1,-1,-1,-1,-1,-1,-1,-1,-1,-1,-1,-1,-1,-1,-1,-1,-1,-1,-1],"split_conditions":[2.506696E-1,3.0370295E-1,2.9981267E-1,2.2703831E-1,4.4531167E-1,2.5867838E-1,2.525355E-1,1.8107149E-1,2.5547984E-1,2.2703831E-1,1.9991842E-1,2.6923078E-1,2.4402983E-1,3.0628195E-1,2.9361011E-2,1.9955704E-1,2.150565E-1,2.2477613E-1,2.660899E-1,2.7607882E-1,2.3488809E-1,1.945164E-1,1.7422958E-1,2.7767068E-2,2.2532223E-1,2.7160725E-1,2.6923078E-1,3.2727274E-1,-7.663455E-9,4.38529E-1,3.3397374E-1,2.3211308E-1,1.6643566E-1,2.607681E-1,2.0513217E-1,2.9399052E-2,2.3217535E-1,2.1515109E-1,4.77546E-2,1.945164E-1,3.59011E-1,1.9344777E-1,2.4519655E-1,1.1326019E0,1.7616607E-1,7.409362E-1,2.7681828E-1,2.506696E-1,2.4733877E-1,2.6997942E-1,2.9858142E-1,4.3532574E-1,6.892455E-2,2.8524896E-2,2.8883177E-1,2.6559258E-1,1.2413793E-1,3.5623524E-2,9.55779E-1,4.3376997E-1,3.1034482E-1,3.7184465E-1,7.2E-2,1.873303E-1,-1.6363637E-1,2.3268293E-1,3.8704664E-1,2.1085715E-1,3.3922112E-1,-1.6363637E-1,1.5760368E-1,3.4615386E-1,1.2576419E-1,-1.23529434E-1,1.4275861E-1,-1.2000001E-1,-7.663455E-9,3.031579E-1,1.1662591E-1,7.2E-2,-1.6363639E-1,1.1476509E-1,-1.6363637E-1,-1.2642144E-1,-5.325457E-3,-1.0975611E-1,1.5132743E-1,-9.473686E-2,2.1724138E-1,-1.8688998E-1,-8.630139E-2,1.7999999E-1,-2.9032271E-2,2.0927246E-1,1.0378657E-1,-2.4324335E-2,2.1724138E-1,-1.6488552E-1,1.2857142E-1,2.178344E-1,-1.2857145E-1,-1.47541E-1,1.9459459E-1,-1.4862388E-1,-3.641957E-2,-1.2783112E-1,-2.0702182E-1,-7.346941E-2,-2.1769768E-1,-2.0610701E-2,-1.6490775E-1,-1.977015E-1,-6.2790714E-2],"split_indices":[0,5,3,1,5,3,1,5,3,1,1,5,1,3,6,0,6,5,1,6,2,0,2,4,3,2,5,0,0,2,3,2,5,5,2,4,4,0,4,0,5,0,0,5,3,4,1,1,3,0,2,4,6,6,0,0,0,6,4,0,0,0,0,0,0,0,0,0,0,0,0,0,0,0,0,0,0,0,0,0,0,0,0,0,0,0,0,0,0,0,0,0,0,0,0,0,0,0,0,0,0,0,0,0,0,0,0,0,0,0,0,0,0],"split_type":[0,0,0,0,0,0,0,0,0,0,0,0,0,0,0,0,0,0,0,0,0,0,0,0,0,0,0,0,0,0,0,0,0,0,0,0,0,0,0,0,0,0,0,0,0,0,0,0,0,0,0,0,0,0,0,0,0,0,0,0,0,0,0,0,0,0,0,0,0,0,0,0,0,0,0,0,0,0,0,0,0,0,0,0,0,0,0,0,0,0,0,0,0,0,0,0,0,0,0,0,0,0,0,0,0,0,0,0,0,0,0,0,0],"sum_hessian":[3.766222E3,1.779111E3,1.987111E3,1.3951111E3,3.8399997E2,7.977777E2,1.1893333E3,1.0115555E3,3.8355554E2,1.2266666E2,2.613333E2,2.191111E2,5.786666E2,3.9999998E0,1.1853333E3,9.431111E2,6.844444E1,3.2177777E2,6.1777775E1,8.044444E1,4.222222E1,1.3155554E2,1.2977777E2,1.6977777E2,4.9333332E1,2.6666664E1,5.5199994E2,2.6666665E0,1.3333333E0,4.062222E2,7.791111E2,6.333333E2,3.0977777E2,2.6222221E1,4.222222E1,2.9599997E2,2.5777777E1,3.0666664E1,3.1111109E1,5.333333E0,7.511111E1,2.3999998E1,1.8222221E1,1.16444435E2,1.5111111E1,7.5555553E0,1.2222221E2,2.9333332E1,1.4044444E2,5.333333E0,4.3999996E1,1.7777777E1,8.888888E0,4.502222E2,1.0177777E2,4.0399997E2,2.222222E0,3.8488885E2,3.942222E2,6.1822217E2,1.5111111E1,3.0799997E2,1.7777777E0,2.3555553E1,2.6666665E0,2.1777777E1,2.0444443E1,5.733333E1,2.3866666E2,2.6666665E0,2.311111E1,6.222222E0,2.4444443E1,1.5999999E1,1.5111111E1,3.9999998E0,1.3333333E0,3.0666664E1,4.4444443E1,1.7777777E0,2.2222221E1,1.5555554E1,2.6666665E0,9.8666664E1,1.7777777E1,3.5555553E0,1.1555555E1,5.333333E0,2.222222E0,1.1511111E2,7.1111107E0,6.222222E0,2.311111E1,7.6888885E1,6.3555553E1,3.111111E0,2.222222E0,4.2666664E1,1.3333333E0,1.6444443E1,1.3333333E0,5.7777777E0,3.111111E0,1.0799999E2,3.422222E2,5.6888885E1,4.4888885E1,4.444444E0,3.9955554E2,4.2666664E1,3.422222E2,3.8088885E2,1.3333332E1],"tree_param":{"num_deleted":"0","num_feature":"7","num_nodes":"113","size_leaf_vector":"1"}},{"base_weights":[2.185518E-1,-5.320293E-1,9.8403716E-1,-6.1486906E-1,-1.2685034E-2,1.148293E0,-4.6760076E-1,-7.012121E-1,-4.796889E-1,3.9046076E-1,-4.511874E-1,8.091631E-1,1.3368454E0,7.1216576E-2,-5.9566796E-1,-7.081193E-1,-4.285715E-1,-3.071459E-1,-5.9982365E-1,-4.9704146E-1,5.264624E-1,-2.8272256E-1,-6.125655E-1,3.003161E-1,9.1549295E-1,1.3978003E0,1.1736705E0,-1.8972337E-1,7.741935E-1,-6.326849E-1,-1.1009179E-1,-7.408674E-1,-6.690331E-1,-3.973643E-8,-6.0693645E-1,-4.3624166E-1,-1.4137611E-1,-5.4388493E-1,-6.8377364E-1,-6.198348E-1,-1.5789478E-1,-4.1095895E-1,5.893386E-1,-3.771429E-1,6.315789E-1,-4.5064384E-1,-2.1146135E-1,7.2611463E-1,2.1348311E-1,1.01694874E-1,9.470383E-1,1.2930098E0,1.4629325E0,1.2051785E0,5.637584E-1,-5.806452E-1,3.5502918E-2,3.2727274E-1,5.217391E-1,-1.643836E-1,-6.5601975E-1,5.9999996E-1,-5.342466E-1,-2.2283147E-1,-7.663455E-9,-1.8389302E-1,-2.1258025E-1,-1.5517244E-1,7.3770486E-2,-6.0000014E-2,-2.10219E-1,-1.3584909E-1,1.7999999E-1,2.6756757E-1,-5.3146195E-2,-1.7324878E-1,-9.288257E-2,-2.0845853E-1,-1.17391326E-1,-2.0642205E-1,-7.663455E-9,-1.6363637E-1,8.181818E-2,7.2E-2,-1.894737E-1,1.9226007E-1,-1.3584907E-1,-1.4000003E-1,-2.0930246E-2,3.1034475E-2,2.6756757E-1,-1.8000004E-1,-2.3376636E-2,2.8264463E-1,-1.07288365E-8,-7.058825E-2,9.452054E-2,1.5428571E-1,-1.3333336E-1,3.6773226E-1,2.5807425E-1,4.287137E-1,3.5424924E-1,4.4134E-1,1.4693877E-1,-7.663455E-9,3.632637E-1,-1.2000001E-1,2.7079645E-1,-7.663455E-9,-2.0000003E-1,-1.0588237E-1,1.16129026E-1,3.6734685E-2,3.1034482E-1,8.181818E-2,-1.2857145E-1,-1.9875933E-1,-7.663455E-9,3.1034475E-2,2.8800002E-1,-1.918033E-1,-7.663455E-9],"categories":[],"categories_nodes":[],"categories_segments":[],"categories_sizes":[],"default_left":[0,0,0,0,0,0,0,0,0,0,0,0,0,0,0,0,0,0,0,0,0,0,0,0,0,0,0,0,0,0,0,0,0,0,0,0,0,0,0,0,0,0,0,0,0,0,0,0,0,0,0,0,0,0,0,0,0,0,0,0,0,0,0,0,0,0,0,0,0,0,0,0,0,0,0,0,0,0,0,0,0,0,0,0,0,0,0,0,0,0,0,0,0,0,0,0,0,0,0,0,0,0,0,0,0,0,0,0,0,0,0,0,0,0,0,0,0,0,0,0,0,0,0],"id":1,"left_children":[1,3,5,7,9,11,13,15,17,19,21,23,25,27,29,31,33,35,37,39,41,43,45,47,49,51,53,55,57,59,61,63,65,67,69,71,73,75,77,79,81,83,85,87,89,91,-1,93,95,97,99,101,103,105,107,109,111,-1,113,115,117,119,121,-1,-1,-1,-1,-1,-1,-1,-1,-1,-1,-1,-1,-1,-1,-1,-1,-1,-1,-1,-1,-1,-1,-1,-1,-1,-1,-1,-1,-1,-1,-1,-1,-1,-1,-1,-1,-1,-1,-1,-1,-1,-1,-1,-1,-1,-1,-1,-1,-1,-1,-1,-1,-1,-1,-1,-1,-1,-1,-1,-1],"loss_changes":[2.1650142E3,8.185425E1,4.453335E2,1.88172E1,4.6630127E1,1.0609497E2,1.3176334E1,1.5782166E0,1.3139526E1,1.6851456E1,3.2613773E0,3.226657E1,9.058472E0,7.0154943E0,2.696434E0,7.497864E-1,2.0809245E0,5.628397E0,1.4026947E0,6.841302E-1,7.2955246E0,5.7344537E0,6.33934E-1,3.7436218E0,1.2662445E1,3.4177246E0,5.062256E0,2.4956818E0,2.570448E-1,1.4523964E0,3.9682794E0,7.3373413E-1,5.7237244E-1,1.271905E0,5.935283E-1,2.8329735E0,4.516133E0,1.645401E0,2.0552826E-1,5.6865597E-1,1.2057416E0,1.3164527E0,6.334568E0,1.5726252E0,7.784374E-1,1.3944373E0,0E0,2.736432E0,4.131572E0,4.6601024E0,1.0517273E1,2.9941406E0,3.0471802E0,1.9457397E0,5.7683434E0,5.16129E-1,2.7011893E0,0E0,1.4429519E0,1.053549E0,5.7950974E-1,7.944828E-1,4.5542336E-1,0E0,0E0,0E0,0E0,0E0,0E0,0E0,0E0,0E0,0E0,0E0,0E0,0E0,0E0,0E0,0E0,0E0,0E0,0E0,0E0,0E0,0E0,0E0,0E0,0E0,0E0,0E0,0E0,0E0,0E0,0E0,0E0,0E0,0E0,0E0,0E0,0E0,0E0,0E0,0E0,0E0,0E0,0E0,0E0,0E0,0E0,0E0,0E0,0E0,0E0,0E0,0E0,0E0,0E0,0E0,0E0,0E0,0E0,0E0,0E0],"parents":[2147483647,0,0,1,1,2,2,3,3,4,4,5,5,6,6,7,7,8,8,9,9,10,10,11,11,12,12,13,13,14,14,15,15,16,16,17,17,18,18,19,19,20,20,21,21,22,22,23,23,24,24,25,25,26,26,27,27,28,28,29,29,30,30,31,31,32,32,33,33,34,34,35,35,36,36,37,37,38,38,39,39,40,40,41,41,42,42,43,43,44,44,45,45,47,47,48,48,49,49,50,50,51,51,52,52,53,53,54,54,55,55,56,56,58,58,59,59,60,60,61,61,62,62],"right_children":[2,4,6,8,10,12,14,16,18,20,22,24,26,28,30,32,34,36,38,40,42,44,46,48,50,52,54,56,58,60,62,64,66,68,70,72,74,76,78,80,82,84,86,88,90,92,-1,94,96,98,100,102,104,106,108,110,112,-1,114,116,118,120,122,-1,-1,-1,-1,-1,-1,-1,-1,-1,-1,-1,-1,-1,-1,-1,-1,-1,-1,-1,-1,-1,-1,-1,-1,-1,-1,-1,-1,-1,-1,-1,-1,-1,-1,-1,-1,-1,-1,-1,-1,-1,-1,-1,-1,-1,-1,-1,-1,-1,-1,-1,-1,-1,-1,-1,-1,-1,-1,-1,-1],"split_conditions":[2.5988886E-1,2.4733877E-1,3.846154E-1,2.0589808E-1,6.726728E-2,3.0077326E-1,4.8019603E-1,2.3702273E-1,6.451613E-2,2.1515109E-1,2.544933E-1,2.5793448E-1,6.0357165E-2,3.3218193E-1,3.7164706E-1,1.6666667E-1,1.9631363E-1,2.2870874E-1,2.6923078E-1,2.1023533E-1,2.241429E-1,2.2475645E-1,2.5547984E-1,2.7767068E-2,2.4438338E-1,3.3397374E-1,3.4131482E-1,3.9182517E-1,3.3962265E-1,2.413793E-1,3.701166E-1,2.2887333E-1,6.324555E-2,6.73435E-2,4.1270513E-2,2.4325213E-1,1.7700107E-1,1.902606E-1,2.7681828E-1,7.2093725E-2,1.5128956E-2,2.2188008E-1,2.9749823E-1,2.6799852E-1,2.4968809E-1,2.546329E-1,-2.1146135E-1,4.7261387E-2,3.6480803E-2,2.7620402E-1,2.8571429E-2,2.9361011E-2,4.38529E-1,2.525355E-1,3.2563153E-1,2.487593E-1,2.9026565E-1,3.2727274E-1,4.4549224E-1,2.6190478E-1,3.9223227E-1,3.6496127E-1,4.143354E-1,-2.2283147E-1,-7.663455E-9,-1.8389302E-1,-2.1258025E-1,-1.5517244E-1,7.3770486E-2,-6.0000014E-2,-2.10219E-1,-1.3584909E-1,1.7999999E-1,2.6756757E-1,-5.3146195E-2,-1.7324878E-1,-9.288257E-2,-2.0845853E-1,-1.17391326E-1,-2.0642205E-1,-7.663455E-9,-1.6363637E-1,8.181818E-2,7.2E-2,-1.894737E-1,1.9226007E-1,-1.3584907E-1,-1.4000003E-1,-2.0930246E-2,3.1034475E-2,2.6756757E-1,-1.8000004E-1,-2.3376636E-2,2.8264463E-1,-1.07288365E-8,-7.058825E-2,9.452054E-2,1.5428571E-1,-1.3333336E-1,3.6773226E-1,2.5807425E-1,4.287137E-1,3.5424924E-1,4.4134E-1,1.4693877E-1,-7.663455E-9,3.632637E-1,-1.2000001E-1,2.7079645E-1,-7.663455E-9,-2.0000003E-1,-1.0588237E-1,1.16129026E-1,3.6734685E-2,3.1034482E-1,8.181818E-2,-1.2857145E-1,-1.9875933E-1,-7.663455E-9,3.1034475E-2,2.8800002E-1,-1.918033E-1,-7.663455E-9],"split_indices":[0,3,5,0,5,3,4,1,4,0,5,3,5,0,3,0,3,1,5,0,1,4,3,4,2,3,5,6,1,3,1,2,6,4,6,3,2,5,1,6,4,0,2,3,0,2,0,6,6,3,6,6,2,1,6,2,3,0,6,1,0,1,2,0,0,0,0,0,0,0,0,0,0,0,0,0,0,0,0,0,0,0,0,0,0,0,0,0,0,0,0,0,0,0,0,0,0,0,0,0,0,0,0,0,0,0,0,0,0,0,0,0,0,0,0,0,0,0,0,0,0,0,0],"split_type":[0,0,0,0,0,0,0,0,0,0,0,0,0,0,0,0,0,0,0,0,0,0,0,0,0,0,0,0,0,0,0,0,0,0,0,0,0,0,0,0,0,0,0,0,0,0,0,0,0,0,0,0,0,0,0,0,0,0,0,0,0,0,0,0,0,0,0,0,0,0,0,0,0,0,0,0,0,0,0,0,0,0,0,0,0,0,0,0,0,0,0,0,0,0,0,0,0,0,0,0,0,0,0,0,0,0,0,0,0,0,0,0,0,0,0,0,0,0,0,0,0,0,0],"sum_hessian":[3.766222E3,1.9017777E3,1.8644443E3,1.6399999E3,2.6177777E2,1.675111E3,1.8933333E2,9.9822217E2,6.417777E2,1.3644444E2,1.2533333E2,6.004444E2,1.0746666E3,3.6444443E1,1.5288889E2,9.7199994E2,2.6222221E1,2.648889E2,3.7688885E2,1.7777777E1,1.1866666E2,6.2666664E1,6.2666664E1,1.04444435E2,4.9599997E2,7.7688885E2,2.9777777E2,2.7111109E1,9.333333E0,1.4177777E2,1.1111111E1,5.191111E2,4.5288885E2,7.9999995E0,1.8222221E1,1.4799998E2,1.16888885E2,2.3066666E2,1.4622221E2,1.2444444E1,5.333333E0,7.1111107E0,1.1155555E2,5.733333E1,5.333333E0,2.4888887E1,3.7777775E1,1.6444443E1,8.799999E1,1.8666666E1,4.773333E2,3.0577777E2,4.7111108E2,2.822222E2,1.5555554E1,9.333333E0,1.7777777E1,2.6666665E0,6.666666E0,7.1111107E0,1.3466666E2,3.9999998E0,7.1111107E0,5.177778E2,1.3333333E0,1.9422221E2,2.5866666E2,2.222222E0,5.7777777E0,3.9999998E0,1.4222221E1,1.4622221E2,1.7777777E0,3.111111E0,1.1377777E2,2.0044443E2,3.0222221E1,1.3955554E2,6.666666E0,1.1111111E1,1.3333333E0,2.6666665E0,2.6666665E0,1.7777777E0,5.333333E0,1.0666666E2,4.8888884E0,4.3999996E1,1.3333332E1,2.222222E0,3.111111E0,1.7333332E1,7.5555553E0,1.2444444E1,3.9999998E0,1.5999999E1,7.199999E1,1.0666666E1,7.9999995E0,1.1022221E2,3.6711108E2,1.3288889E2,1.7288889E2,4.6666663E2,4.444444E0,1.3333333E0,2.808889E2,3.9999998E0,1.1555555E1,1.3333333E0,7.9999995E0,8.444444E0,9.333333E0,4.444444E0,2.222222E0,2.6666665E0,4.444444E0,1.3333333E2,1.3333333E0,2.222222E0,1.7777777E0,5.7777777E0,1.3333333E0],"tree_param":{"num_deleted":"0","num_feature":"7","num_nodes":"123","size_leaf_vector":"1"}},{"base_weights":[-4.33122E-1,-6.80255E-1,9.8313826E-1,-7.3065E-1,-3.0289733E-1,4.188034E-1,1.1295972E0,-2.2125635E-1,-5.7722867E-1,-7.4171536E-2,-5.8622956E-1,7.570093E-1,2.6720643E-1,1.160172E0,6.9473684E-1,1.9999997E-1,-6.0437566E-1,-2.9394817E-1,1.8987338E-1,-6.288586E-1,-1.2765962E-1,-1.4400001E-1,8.3606553E-1,-4.444445E-1,3.4977576E-1,8.7096775E-1,1.1981623E0,-1.2857145E-1,7.582417E-1,2.1724138E-1,-1.4400001E-1,-6.1105996E-1,-7.663455E-9,-4.3165512E-2,-4.5497635E-1,9.0128756E-1,-6.976749E-2,-1.463415E-1,-6.392359E-1,2.3595501E-1,-1.918033E-1,9.3962264E-1,1.2244894E-1,-8.1081115E-2,-1.8679248E-1,5.8252387E-2,5.8536583E-1,1.00489E0,-9.230773E-2,1.0722703E0,1.2728635E0,2.6086953E-1,8.873239E-1,-1.4818405E-1,-2.0220266E-1,-5.074186E-2,1.3146068E-1,-1.5892516E-1,-2.9752081E-2,3.6131388E-1,1.2857142E-1,-1.0874038E-1,1.0867924E-1,-1.5517244E-1,1.2857142E-1,-8.7096795E-2,-1.980423E-1,-1.232878E-2,2.8800002E-1,1.1647058E-1,3.4285712E-1,1.7999999E-1,-8.181819E-2,7.2E-2,-1.2857145E-1,5.8775503E-2,-1.23287685E-1,2.4841629E-1,6.305732E-2,-9.753488E-9,3.2025975E-1,-8.490568E-2,1.2857142E-1,3.3104286E-1,-1.07288365E-8,1.21621616E-1,3.8499746E-1,-6.0000014E-2,2.4545455E-1,2.923858E-1,-3.600001E-2],"categories":[],"categories_nodes":[],"categories_segments":[],"categories_sizes":[],"default_left":[0,0,0,0,0,0,0,0,0,0,0,0,0,0,0,0,0,0,0,0,0,0,0,0,0,0,0,0,0,0,0,0,0,0,0,0,0,0,0,0,0,0,0,0,0,0,0,0,0,0,0,0,0,0,0,0,0,0,0,0,0,0,0,0,0,0,0,0,0,0,0,0,0,0,0,0,0,0,0,0,0,0,0,0,0,0,0,0,0,0,0],"id":2,"left_children":[1,3,5,7,9,11,13,-1,15,17,19,21,23,25,27,29,31,33,35,37,39,-1,41,43,45,47,49,-1,51,-1,-1,53,-1,55,57,59,61,63,65,67,-1,69,71,73,-1,75,77,79,81,83,85,87,89,-1,-1,-1,-1,-1,-1,-1,-1,-1,-1,-1,-1,-1,-1,-1,-1,-1,-1,-1,-1,-1,-1,-1,-1,-1,-1,-1,-1,-1,-1,-1,-1,-1,-1,-1,-1,-1,-1],"loss_changes":[1.3192137E3,6.078711E1,4.5821167E1,2.5570068E0,2.456097E1,5.7964287E0,5.098755E0,0E0,2.7770538E0,1.2313229E1,3.2320824E0,3.8892708E0,4.993406E0,3.4989014E0,2.5839205E0,2.1296554E0,4.9241257E-1,4.6513367E0,1.7897867E1,6.8146133E-1,3.0657344E0,0E0,2.3893337E0,5.322684E-1,5.0711145E0,6.757965E0,2.046875E0,0E0,1.7159824E0,0E0,0E0,5.558319E-1,0E0,2.8837621E0,1.8186703E0,3.1931057E0,9.193976E0,1.1930795E0,9.113693E-1,2.0231366E0,0E0,2.855877E0,1.1910946E0,5.6154436E-1,0E0,2.298256E0,3.5590248E0,2.8606758E0,8.387311E-1,4.732895E0,1.497345E0,2.1328063E0,2.1980782E0,0E0,0E0,0E0,0E0,0E0,0E0,0E0,0E0,0E0,0E0,0E0,0E0,0E0,0E0,0E0,0E0,0E0,0E0,0E0,0E0,0E0,0E0,0E0,0E0,0E0,0E0,0E0,0E0,0E0,0E0,0E0,0E0,0E0,0E0,0E0,0E0,0E0,0E0],"parents":[2147483647,0,0,1,1,2,2,3,3,4,4,5,5,6,6,8,8,9,9,10,10,11,11,12,12,13,13,14,14,15,15,16,16,17,17,18,18,19,19,20,20,22,22,23,23,24,24,25,25,26,26,28,28,31,31,33,33,34,34,35,35,36,36,37,37,38,38,39,39,41,41,42,42,43,43,45,45,46,46,47,47,48,48,49,49,50,50,51,51,52,52],"right_children":[2,4,6,8,10,12,14,-1,16,18,20,22,24,26,28,30,32,34,36,38,40,-1,42,44,46,48,50,-1,52,-1,-1,54,-1,56,58,60,62,64,66,68,-1,70,72,74,-1,76,78,80,82,84,86,88,90,-1,-1,-1,-1,-1,-1,-1,-1,-1,-1,-1,-1,-1,-1,-1,-1,-1,-1,-1,-1,-1,-1,-1,-1,-1,-1,-1,-1,-1,-1,-1,-1,-1,-1,-1,-1,-1,-1],"split_conditions":[3.59011E-1,1.6643566E-1,4.4531167E-1,1.3130644E-1,2.7241173E-1,3.629523E-1,3.474978E-1,-2.2125635E-1,9.4280906E-2,2.6923078E-1,3.6055514E-1,3.2430297E-1,1.411667E-1,5.047848E-1,3.0406058E-1,2.5547984E-1,4.1602516E-1,2.0513217E-1,2.7607882E-1,1.7460757E-1,3.8749212E-1,-1.4400001E-1,2.9858142E-1,1.2738594E-1,4.0694606E-1,4.9836454E-1,2.1173272E-1,-1.2857145E-1,5.835804E-1,2.1724138E-1,-1.4400001E-1,1.4834045E-1,-7.663455E-9,2.4706537E-1,2.5672406E-1,2.1884406E-1,2.2703831E-1,2.7758744E-1,1.764706E-1,2.9411766E-1,-1.918033E-1,1.9581105E-1,3.2563153E-1,4.256017E-1,-1.8679248E-1,3.0754822E-1,2.6224652E-1,1.4597867E-1,2.8174534E-1,2.3346807E-1,1.7422958E-1,3.75E-1,4.143354E-1,-1.4818405E-1,-2.0220266E-1,-5.074186E-2,1.3146068E-1,-1.5892516E-1,-2.9752081E-2,3.6131388E-1,1.2857142E-1,-1.0874038E-1,1.0867924E-1,-1.5517244E-1,1.2857142E-1,-8.7096795E-2,-1.980423E-1,-1.232878E-2,2.8800002E-1,1.1647058E-1,3.4285712E-1,1.7999999E-1,-8.181819E-2,7.2E-2,-1.2857145E-1,5.8775503E-2,-1.23287685E-1,2.4841629E-1,6.305732E-2,-9.753488E-9,3.2025975E-1,-8.490568E-2,1.2857142E-1,3.3104286E-1,-1.07288365E-8,1.21621616E-1,3.8499746E-1,-6.0000014E-2,2.4545455E-1,2.923858E-1,-3.600001E-2],"split_indices":[5,5,5,5,2,6,0,0,6,5,1,4,2,4,2,2,0,2,6,5,2,0,2,3,5,6,1,0,5,0,0,4,0,5,2,2,1,0,6,5,0,1,6,4,0,2,0,0,1,0,2,1,2,0,0,0,0,0,0,0,0,0,0,0,0,0,0,0,0,0,0,0,0,0,0,0,0,0,0,0,0,0,0,0,0,0,0,0,0,0,0],"split_type":[0,0,0,0,0,0,0,0,0,0,0,0,0,0,0,0,0,0,0,0,0,0,0,0,0,0,0,0,0,0,0,0,0,0,0,0,0,0,0,0,0,0,0,0,0,0,0,0,0,0,0,0,0,0,0,0,0,0,0,0,0,0,0,0,0,0,0,0,0,0,0,0,0,0,0,0,0,0,0,0,0,0,0,0,0,0,0,0,0,0,0],"sum_hessian":[3.766222E3,3.2071108E3,5.591111E2,2.8284443E3,3.7866666E2,1.1599999E2,4.4311108E2,2.7035554E3,1.2488888E2,2.1022221E2,1.6844443E2,3.4666664E1,8.133333E1,4.1244443E2,3.0666664E1,3.9999998E0,1.20888885E2,1.1466666E2,9.555555E1,1.5377777E2,1.4666666E1,1.7777777E0,3.2888885E1,7.9999995E0,7.333333E1,5.0666664E1,3.6177777E2,1.3333333E0,2.9333332E1,2.222222E0,1.7777777E0,1.1955555E2,1.3333333E0,4.5333332E1,6.933333E1,2.4888887E1,7.0666664E1,3.5555553E0,1.5022221E2,8.888888E0,5.7777777E0,2.8444443E1,4.444444E0,3.111111E0,4.8888884E0,3.3333332E1,3.9999996E1,4.4444443E1,6.222222E0,1.4044444E2,2.2133331E2,6.666666E0,2.2666666E1,4.4888885E1,7.4666664E1,3.6444443E1,8.888888E0,5.6888885E1,1.2444444E1,1.4222221E1,1.0666666E1,4.222222E1,2.8444443E1,2.222222E0,1.3333333E0,9.333333E0,1.4088889E2,7.1111107E0,1.7777777E0,8.444444E0,1.9999998E1,1.7777777E0,2.6666665E0,1.7777777E0,1.3333333E0,2.6222221E1,7.1111107E0,2.3555553E1,1.6444443E1,2.6666665E0,4.1777775E1,4.8888884E0,1.3333333E0,1.3644444E2,3.9999998E0,3.111111E0,2.1822221E2,3.9999998E0,2.6666665E0,2.0888887E1,1.7777777E0],"tree_param":{"num_deleted":"0","num_feature":"7","num_nodes":"91","size_leaf_vector":"1"}},{"base_weights":[1.677569E-1,6.334621E-1,-3.563927E-1,7.912619E-1,-2.2080728E-1,-9.627996E-2,-5.347451E-1,8.8580674E-1,5.0874007E-1,1.7215616E-1,-3.335764E-1,4.9305397E-1,-1.7266391E-1,-6.3040143E-1,-4.8592788E-1,9.1942334E-1,4.6486062E-1,8.247962E-1,4.3554902E-1,4.130882E-1,-1.2539344E-1,-2.1753356E-1,-4.5385143E-1,5.8637536E-1,-2.285357E-1,-9.4443515E-2,-4.8491642E-1,-6.379913E-1,1.05619915E-1,-4.118346E-1,-5.595869E-1,9.5640993E-1,8.1615126E-1,-2.2747754E-1,5.610621E-1,5.751737E-1,9.7569406E-1,4.803771E-1,1.3066462E-1,-4.0696627E-1,5.114475E-1,-5.145202E-1,1.01856425E-1,-3.28556E-1,1.2708035E-1,1.3296323E-1,-4.9713248E-1,8.4106225E-1,2.9115126E-1,-4.604443E-1,2.8252727E-1,3.0828777E-1,-1.6675954E-1,-4.982928E-1,1.0539823E-1,-1.666273E-1,-6.431042E-1,-8.740125E-3,-4.6489167E-1,-5.7469434E-1,-1.4857973E-1,2.8930953E-1,2.2000124E-1,2.5864407E-1,1.5919004E-1,9.090932E-2,-1.3727655E-1,1.927935E-1,-2.992495E-2,1.8875068E-1,-5.518972E-2,3.008232E-1,1.2407092E-1,1.6272904E-1,8.6660825E-2,-6.631822E-2,1.4899024E-1,-1.6614723E-1,-9.021472E-3,2.8065056E-1,9.797082E-2,-1.7539361E-1,1.43124E-2,2.572349E-1,-3.3144627E-2,1.151314E-1,-1.0978425E-1,1.9054705E-1,-2.5445702E-2,-6.161695E-2,2.806261E-1,-1.5371038E-1,1.2840697E-1,-4.127395E-2,2.7962226E-1,2.1228956E-2,2.4816632E-1,-1.7346251E-1,2.4429964E-2,2.9312584E-1,-1.2630779E-1,5.1262595E-2,2.34547E-1,-5.9159063E-2,1.2697081E-1,5.012997E-2,-1.5490587E-1,5.707282E-2,-1.4058186E-1,-1.9937097E-1,-1.7308691E-1,-4.772762E-2,1.2485986E-1,-1.4402287E-1,7.661716E-2,-1.7588705E-1,-6.5696925E-2,7.994796E-2,-1.4882122E-1],"categories":[],"categories_nodes":[],"categories_segments":[],"categories_sizes":[],"default_left":[0,0,0,0,0,0,0,0,0,0,0,0,0,0,0,0,0,0,0,0,0,0,0,0,0,0,0,0,0,0,0,0,0,0,0,0,0,0,0,0,0,0,0,0,0,0,0,0,0,0,0,0,0,0,0,0,0,0,0,0,0,0,0,0,0,0,0,0,0,0,0,0,0,0,0,0,0,0,0,0,0,0,0,0,0,0,0,0,0,0,0,0,0,0,0,0,0,0,0,0,0,0,0,0,0,0,0,0,0,0,0,0,0,0,0,0,0,0,0],"id":3,"left_children":[1,3,5,7,9,11,13,15,17,19,21,23,25,27,29,31,33,35,37,39,41,43,45,47,49,51,53,55,-1,57,59,61,63,65,67,69,71,73,75,77,79,81,83,85,87,89,91,93,95,97,99,101,103,105,-1,107,109,111,113,115,117,-1,-1,-1,-1,-1,-1,-1,-1,-1,-1,-1,-1,-1,-1,-1,-1,-1,-1,-1,-1,-1,-1,-1,-1,-1,-1,-1,-1,-1,-1,-1,-1,-1,-1,-1,-1,-1,-1,-1,-1,-1,-1,-1,-1,-1,-1,-1,-1,-1,-1,-1,-1,-1,-1,-1,-1,-1,-1],"loss_changes":[9.12453E2,2.66984E2,8.1545685E1,4.4179688E1,1.3767413E1,3.23464E1,4.565094E0,1.7269043E1,9.386414E0,5.044671E0,3.2612343E0,5.688818E0,1.546813E1,2.8280334E0,3.5630035E0,3.6390991E0,6.422146E0,2.3805847E0,4.641533E0,3.3310776E0,2.875837E0,4.802965E0,3.0450706E0,5.268276E0,1.3349619E0,1.488073E1,1.5956612E0,7.2865295E-1,0E0,7.4878426E0,2.0615845E0,7.942505E-1,3.6390839E0,1.6330295E0,4.5530186E0,1.4216871E0,3.0358124E-1,3.4048767E0,5.965933E0,2.4367768E-1,2.4395285E0,4.9852252E-1,3.462691E0,2.65479E0,3.3960705E0,2.593856E0,1.761961E0,3.5871716E0,4.134199E0,5.1758933E-1,2.264821E0,4.932929E0,7.846965E0,1.5933685E0,0E0,6.356574E-1,1.0324097E-1,2.7345607E0,3.5080566E0,1.2457962E0,2.0948799E0,0E0,0E0,0E0,0E0,0E0,0E0,0E0,0E0,0E0,0E0,0E0,0E0,0E0,0E0,0E0,0E0,0E0,0E0,0E0,0E0,0E0,0E0,0E0,0E0,0E0,0E0,0E0,0E0,0E0,0E0,0E0,0E0,0E0,0E0,0E0,0E0,0E0,0E0,0E0,0E0,0E0,0E0,0E0,0E0,0E0,0E0,0E0,0E0,0E0,0E0,0E0,0E0,0E0,0E0,0E0,0E0,0E0,0E0],"parents":[2147483647,0,0,1,1,2,2,3,3,4,4,5,5,6,6,7,7,8,8,9,9,10,10,11,11,12,12,13,13,14,14,15,15,16,16,17,17,18,18,19,19,20,20,21,21,22,22,23,23,24,24,25,25,26,26,27,27,29,29,30,30,31,31,32,32,33,33,34,34,35,35,36,36,37,37,38,38,39,39,40,40,41,41,42,42,43,43,44,44,45,45,46,46,47,47,48,48,49,49,50,50,51,51,52,52,53,53,55,55,56,56,57,57,58,58,59,59,60,60],"right_children":[2,4,6,8,10,12,14,16,18,20,22,24,26,28,30,32,34,36,38,40,42,44,46,48,50,52,54,56,-1,58,60,62,64,66,68,70,72,74,76,78,80,82,84,86,88,90,92,94,96,98,100,102,104,106,-1,108,110,112,114,116,118,-1,-1,-1,-1,-1,-1,-1,-1,-1,-1,-1,-1,-1,-1,-1,-1,-1,-1,-1,-1,-1,-1,-1,-1,-1,-1,-1,-1,-1,-1,-1,-1,-1,-1,-1,-1,-1,-1,-1,-1,-1,-1,-1,-1,-1,-1,-1,-1,-1,-1,-1,-1,-1,-1,-1,-1,-1,-1],"split_conditions":[2.5856805E-1,3.59011E-1,2.9981267E-1,2.2766042E-1,4.4531167E-1,2.3851453E-1,2.9361011E-2,2.2477613E-1,2.2298825E-1,2.1388234E-1,1.9991842E-1,4.0694606E-1,2.6923078E-1,4.38529E-1,3.3397374E-1,2.0589808E-1,2.2086306E-1,5.3528775E-2,2.7022642E-1,3.3333334E-1,2.2070478E-1,1.7909627E-1,1.7422958E-1,2.5295487E-1,2.6799852E-1,2.5547984E-1,3.2879797E-1,2.6559258E-1,1.05619915E-1,3.5623524E-2,9.55779E-1,1.6643566E-1,2.3346564E-1,1.874085E-1,2.2762573E-1,5.263158E-2,2.1779498E-1,2.506696E-1,2.8327885E-1,1.8187961E-1,1.411667E-1,4.6783715E-1,2.2703831E-1,4.8343343E-1,1.792051E-1,2.0650284E-1,3E-1,1.9745483E-1,2.7620402E-1,2.3243602E-1,2.2222222E-1,1.1277129E-1,3.2351694E-1,2.2532223E-1,1.0539823E-1,2.0370021E-2,3.0528126E-2,4.3314807E-2,3.7194428E-1,4.38529E-1,3.5318872E-1,2.8930953E-1,2.2000124E-1,2.5864407E-1,1.5919004E-1,9.090932E-2,-1.3727655E-1,1.927935E-1,-2.992495E-2,1.8875068E-1,-5.518972E-2,3.008232E-1,1.2407092E-1,1.6272904E-1,8.6660825E-2,-6.631822E-2,1.4899024E-1,-1.6614723E-1,-9.021472E-3,2.8065056E-1,9.797082E-2,-1.7539361E-1,1.43124E-2,2.572349E-1,-3.3144627E-2,1.151314E-1,-1.0978425E-1,1.9054705E-1,-2.5445702E-2,-6.161695E-2,2.806261E-1,-1.5371038E-1,1.2840697E-1,-4.127395E-2,2.7962226E-1,2.1228956E-2,2.4816632E-1,-1.7346251E-1,2.4429964E-2,2.9312584E-1,-1.2630779E-1,5.1262595E-2,2.34547E-1,-5.9159063E-2,1.2697081E-1,5.012997E-2,-1.5490587E-1,5.707282E-2,-1.4058186E-1,-1.9937097E-1,-1.7308691E-1,-4.772762E-2,1.2485986E-1,-1.4402287E-1,7.661716E-2,-1.7588705E-1,-6.5696925E-2,7.994796E-2,-1.4882122E-1],"split_indices":[1,5,3,0,5,0,6,5,1,1,1,5,5,2,3,0,6,4,3,6,3,3,2,3,3,3,2,0,0,6,4,5,3,6,1,4,4,1,3,0,2,4,1,5,1,3,0,2,3,0,0,6,2,3,0,5,5,4,0,2,0,0,0,0,0,0,0,0,0,0,0,0,0,0,0,0,0,0,0,0,0,0,0,0,0,0,0,0,0,0,0,0,0,0,0,0,0,0,0,0,0,0,0,0,0,0,0,0,0,0,0,0,0,0,0,0,0,0,0],"split_type":[0,0,0,0,0,0,0,0,0,0,0,0,0,0,0,0,0,0,0,0,0,0,0,0,0,0,0,0,0,0,0,0,0,0,0,0,0,0,0,0,0,0,0,0,0,0,0,0,0,0,0,0,0,0,0,0,0,0,0,0,0,0,0,0,0,0,0,0,0,0,0,0,0,0,0,0,0,0,0,0,0,0,0,0,0,0,0,0,0,0,0,0,0,0,0,0,0,0,0,0,0,0,0,0,0,0,0,0,0,0,0,0,0,0,0,0,0,0,0],"sum_hessian":[3.7361172E3,1.9782448E3,1.7578724E3,1.6698629E3,3.0838174E2,7.1566785E2,1.0422046E3,1.2495654E3,4.202975E2,6.864607E1,2.3973569E2,8.148928E1,6.341786E2,3.481327E2,6.9407184E2,1.1560588E3,9.350666E1,7.709858E1,3.431989E2,3.77173E1,3.0928774E1,1.2344399E2,1.1629169E2,7.232327E1,9.166004E0,5.0818005E2,1.25998505E2,3.4581183E2,2.3208838E0,3.4930185E2,3.4477002E2,8.4512036E2,3.1093842E2,1.1241294E1,8.226537E1,3.0860062E1,4.623852E1,2.9870395E2,4.449497E1,3.703384E0,3.4013916E1,1.0936963E1,1.999181E1,9.340031E1,3.0043686E1,7.8457036E0,1.08445984E2,3.7834736E1,3.448854E1,6.373089E0,2.792915E0,7.686305E1,4.3131702E2,1.2441256E2,1.5859513E0,4.0711946E0,3.4174063E2,4.0764374E1,3.0853748E2,3.321624E2,1.2607604E1,8.128111E2,3.2309288E1,2.6605804E2,4.488036E1,3.3049695E0,7.936324E0,7.324957E1,9.015797E0,2.8970675E1,1.8893874E0,4.3367775E1,2.8707442E0,2.2421924E2,7.448472E1,2.289094E1,2.1604027E1,2.327161E0,1.376223E0,9.094282E0,2.4919632E1,9.688654E0,1.2483089E0,3.7191882E0,1.6272623E1,4.196235E0,8.920407E1,8.254416E0,2.178927E1,6.042116E0,1.8035874E0,1.0712799E2,1.3179958E0,3.1756501E0,3.4659084E1,2.5242777E1,9.245764E0,5.180242E0,1.192847E0,1.2097967E0,1.5831183E0,6.0630035E1,1.6233017E1,4.1079047E2,2.0526543E1,3.0695007E0,1.21343056E2,2.0355973E0,2.0355973E0,2.5118248E2,9.055814E1,3.057275E1,1.0191622E1,3.02494E2,6.043493E0,3.2104816E2,1.1114261E1,5.8513474E0,6.7562566E0],"tree_param":{"num_deleted":"0","num_feature":"7","num_nodes":"119","size_leaf_vector":"1"}},{"base_weights":[1.681209E-1,-4.5943114E-1,6.8458927E-1,-5.783943E-1,-1.9070494E-1,7.831709E-1,-4.2642733E-1,-6.430089E-1,-4.900719E-1,8.1041284E-2,-4.2278203E-1,5.7074034E-1,9.110654E-1,1.497052E-2,-5.171324E-1,-1.9404556E-1,-3.3433908E-1,-3.5840398E-1,-5.8451605E-1,-1.3609147E-1,3.7606025E-1,-3.4080717E-1,-5.5472225E-1,1.2810637E-1,6.3803583E-1,9.493565E-1,8.0342835E-1,-2.5105962E-1,5.130982E-1,-3.8038456E-1,-6.437575E-1,8.795807E-2,-4.768751E-1,-5.4963756E-1,-2.540401E-1,-6.126715E-1,-4.3220556E-1,-1.8031725E-1,3.7028408E-1,4.335037E-1,-1.8046352E-1,-3.8859853E-1,8.591869E-2,2.0493042E-2,-5.790898E-1,2.52668E-1,-1.2905478E-1,7.556831E-1,4.9000236E-1,8.829124E-1,9.945188E-1,8.5780764E-1,6.337936E-1,-5.4354125E-1,2.8008936E-2,2.2402762E-1,2.9057837E-1,-4.7537628E-1,2.7545604E-1,-1.9665673E-1,-8.790147E-3,-1.1695711E-1,1.6009538E-1,-1.7171001E-1,-4.059031E-2,-1.7425549E-1,-5.7015296E-2,-1.6791867E-1,-5.9926536E-2,-6.987264E-3,-1.8492225E-1,-1.6454948E-2,-1.515483E-1,7.388529E-2,-7.0688285E-2,2.5330192E-1,-1.7004387E-1,7.796138E-2,2.588311E-1,-1.3347495E-1,-6.361513E-2,1.0761569E-1,-1.8764517E-1,2.2711647E-1,-1.4828381E-1,-1.9164139E-1,-1.4165893E-1,-2.0974167E-2,1.5696733E-1,-1.8060912E-1,2.6578717E-2,2.3434788E-1,5.3765383E-2,4.6515614E-2,1.7347369E-1,2.8754056E-1,2.4574278E-1,2.9992265E-1,1.5001541E-1,1.7218812E-1,2.71541E-1,2.1536486E-1,-4.7413282E-2,-1.8285204E-1,-6.725056E-2,-5.593833E-2,1.5199466E-1,1.2999801E-1,-1.3246557E-1,8.768705E-4,-1.6640699E-1,2.2530936E-1,-6.83697E-2],"categories":[],"categories_nodes":[],"categories_segments":[],"categories_sizes":[],"default_left":[0,0,0,0,0,0,0,0,0,0,0,0,0,0,0,0,0,0,0,0,0,0,0,0,0,0,0,0,0,0,0,0,0,0,0,0,0,0,0,0,0,0,0,0,0,0,0,0,0,0,0,0,0,0,0,0,0,0,0,0,0,0,0,0,0,0,0,0,0,0,0,0,0,0,0,0,0,0,0,0,0,0,0,0,0,0,0,0,0,0,0,0,0,0,0,0,0,0,0,0,0,0,0,0,0,0,0,0,0,0,0,0,0],"id":4,"left_children":[1,3,5,7,9,11,13,15,17,19,21,23,25,27,29,-1,31,33,35,37,39,41,43,45,47,49,51,53,55,57,59,61,63,65,67,69,71,73,75,77,-1,79,81,83,85,87,89,91,93,95,97,99,101,103,105,107,-1,109,111,-1,-1,-1,-1,-1,-1,-1,-1,-1,-1,-1,-1,-1,-1,-1,-1,-1,-1,-1,-1,-1,-1,-1,-1,-1,-1,-1,-1,-1,-1,-1,-1,-1,-1,-1,-1,-1,-1,-1,-1,-1,-1,-1,-1,-1,-1,-1,-1,-1,-1,-1,-1,-1,-1],"loss_changes":[1.21036E3,5.3790497E1,2.2468384E2,6.3516846E0,3.2756824E1,5.0605713E1,6.7175007E0,5.732727E-1,5.9802475E0,1.5415129E1,2.8395653E0,2.1062881E1,4.071533E0,4.043364E0,2.162857E0,0E0,6.592753E-1,4.061344E0,9.713974E-1,3.1772614E0,5.9859858E0,3.6085262E0,1.4936066E0,3.0734723E0,1.0356476E1,1.7015381E0,2.355423E0,1.6417562E0,1.1803539E0,4.448083E0,4.9225807E-1,9.390004E-1,1.7774284E-1,7.141018E-1,2.1787834E0,5.160675E-1,1.3038921E0,3.0879145E0,5.580086E0,6.9962025E0,0E0,1.4749317E0,3.8098145E0,2.3693829E0,3.45932E-1,5.647736E0,3.3103848E0,4.8730164E0,8.055809E0,9.338989E-1,8.015137E-1,2.639679E0,5.4482803E0,6.938648E-2,1.2389159E0,1.2769622E0,0E0,2.3117666E0,2.4214103E0,0E0,0E0,0E0,0E0,0E0,0E0,0E0,0E0,0E0,0E0,0E0,0E0,0E0,0E0,0E0,0E0,0E0,0E0,0E0,0E0,0E0,0E0,0E0,0E0,0E0,0E0,0E0,0E0,0E0,0E0,0E0,0E0,0E0,0E0,0E0,0E0,0E0,0E0,0E0,0E0,0E0,0E0,0E0,0E0,0E0,0E0,0E0,0E0,0E0,0E0,0E0,0E0,0E0,0E0],"parents":[2147483647,0,0,1,1,2,2,3,3,4,4,5,5,6,6,7,7,8,8,9,9,10,10,11,11,12,12,13,13,14,14,16,16,17,17,18,18,19,19,20,20,21,21,22,22,23,23,24,24,25,25,26,26,27,27,28,28,29,29,30,30,31,31,32,32,33,33,34,34,35,35,36,36,37,37,38,38,39,39,41,41,42,42,43,43,44,44,45,45,46,46,47,47,48,48,49,49,50,50,51,51,52,52,53,53,54,54,55,55,57,57,58,58],"right_children":[2,4,6,8,10,12,14,16,18,20,22,24,26,28,30,-1,32,34,36,38,40,42,44,46,48,50,52,54,56,58,60,62,64,66,68,70,72,74,76,78,-1,80,82,84,86,88,90,92,94,96,98,100,102,104,106,108,-1,110,112,-1,-1,-1,-1,-1,-1,-1,-1,-1,-1,-1,-1,-1,-1,-1,-1,-1,-1,-1,-1,-1,-1,-1,-1,-1,-1,-1,-1,-1,-1,-1,-1,-1,-1,-1,-1,-1,-1,-1,-1,-1,-1,-1,-1,-1,-1,-1,-1,-1,-1,-1,-1,-1,-1],"split_conditions":[2.5861976E-1,2.2222222E-1,4.0694606E-1,1.9975047E-1,6.428243E-2,3.0320367E-1,4.8019603E-1,2.3809524E-1,6.2017366E-2,2.4733877E-1,3.197029E-1,2.5778008E-1,6.2017366E-2,3.15353E-1,7.1913856E-1,-1.9404556E-1,4.77546E-2,1.9955704E-1,2.3211308E-1,2.536857E-1,2.958343E-1,2.6621974E-1,2.236068E-1,7.035975E-2,4.761905E-2,3.324429E-1,3.504745E-1,4.1150847E-1,4.4549224E-1,3.514861E-1,4.143354E-1,4.756515E-2,9.578263E-2,7.965662E-2,1.9975047E-1,1.2403473E-1,2.0986055E-1,1.9216561E-1,2.5672406E-1,2.701716E-1,-1.8046352E-1,2.4968809E-1,2.8609028E-1,2.2292078E-1,2.4519655E-1,3.834825E-2,7.965662E-2,3.2351694E-1,2.6997942E-1,2.9361011E-2,4.38529E-1,7.0816986E-2,3.0370295E-1,3.2769278E-1,3.1300527E-1,4.5746696E-1,2.9057837E-1,2.6753753E-1,3.7194428E-1,-1.9665673E-1,-8.790147E-3,-1.1695711E-1,1.6009538E-1,-1.7171001E-1,-4.059031E-2,-1.7425549E-1,-5.7015296E-2,-1.6791867E-1,-5.9926536E-2,-6.987264E-3,-1.8492225E-1,-1.6454948E-2,-1.515483E-1,7.388529E-2,-7.0688285E-2,2.5330192E-1,-1.7004387E-1,7.796138E-2,2.588311E-1,-1.3347495E-1,-6.361513E-2,1.0761569E-1,-1.8764517E-1,2.2711647E-1,-1.4828381E-1,-1.9164139E-1,-1.4165893E-1,-2.0974167E-2,1.5696733E-1,-1.8060912E-1,2.6578717E-2,2.3434788E-1,5.3765383E-2,4.6515614E-2,1.7347369E-1,2.8754056E-1,2.4574278E-1,2.9992265E-1,1.5001541E-1,1.7218812E-1,2.71541E-1,2.1536486E-1,-4.7413282E-2,-1.8285204E-1,-6.725056E-2,-5.593833E-2,1.5199466E-1,1.2999801E-1,-1.3246557E-1,8.768705E-4,-1.6640699E-1,2.2530936E-1,-6.83697E-2],"split_indices":[0,0,5,1,4,3,4,2,5,3,5,1,5,2,4,0,5,0,2,0,2,3,0,5,6,1,1,6,6,0,2,6,4,4,2,3,1,3,2,1,0,0,3,3,0,5,4,2,0,6,2,5,5,1,1,4,0,1,0,0,0,0,0,0,0,0,0,0,0,0,0,0,0,0,0,0,0,0,0,0,0,0,0,0,0,0,0,0,0,0,0,0,0,0,0,0,0,0,0,0,0,0,0,0,0,0,0,0,0,0,0,0,0],"split_type":[0,0,0,0,0,0,0,0,0,0,0,0,0,0,0,0,0,0,0,0,0,0,0,0,0,0,0,0,0,0,0,0,0,0,0,0,0,0,0,0,0,0,0,0,0,0,0,0,0,0,0,0,0,0,0,0,0,0,0,0,0,0,0,0,0,0,0,0,0,0,0,0,0,0,0,0,0,0,0,0,0,0,0,0,0,0,0,0,0,0,0,0,0,0,0,0,0,0,0,0,0,0,0,0,0,0,0,0,0,0,0,0,0],"sum_hessian":[3.7324321E3,1.6850575E3,2.0473746E3,1.1671959E3,5.178616E2,1.8807858E3,1.6658891E2,6.704387E2,4.9675714E2,2.3884332E2,2.7901822E2,7.088541E2,1.1719316E3,2.8539957E1,1.3804897E2,6.611828E2,9.255924E0,2.0949194E2,2.8726523E2,1.3789319E2,1.00950134E2,1.7430501E2,1.0471321E2,9.393085E1,6.149233E2,8.586521E2,3.132795E2,1.8927517E1,9.612438E0,6.82966E1,6.975236E1,2.4323652E0,6.8235593E0,7.245705E1,1.370349E2,2.3989647E2,4.736874E1,1.2740943E2,1.0483767E1,9.587325E1,5.0768824E0,1.568301E2,1.7474916E1,4.2620993E0,1.0045111E2,6.329163E1,3.0639215E1,3.4033926E2,2.7458405E2,3.55775E2,5.028771E2,2.3415913E2,7.912038E1,8.778935E0,1.0148582E1,6.7931495E0,2.8192892E0,5.9896397E1,8.4002075E0,6.837634E1,1.3760194E0,1.2343416E0,1.1980236E0,4.804674E0,2.0188851E0,6.610357E1,6.3534737E0,1.9261099E1,1.17773796E2,1.5566306E0,2.3833984E2,7.958082E0,3.941066E1,1.4226849E1,1.1318258E2,7.0276337E0,3.4561331E0,6.940519E1,2.6468058E1,1.1774876E2,3.908134E1,1.2989582E1,4.4853334E0,1.5597181E0,2.7023814E0,6.1255405E1,3.919571E1,2.920836E1,3.4083267E1,9.099368E0,2.1539848E1,3.2559476E2,1.4744487E1,5.7830456E1,2.1675357E2,1.5641748E2,1.9935751E2,4.966093E2,6.2677684E0,3.5340153E1,1.9881898E2,7.160923E1,7.511149E0,6.523148E0,2.2557871E0,7.429839E0,2.7187433E0,5.4334784E0,1.3596711E0,8.656533E0,5.1239864E1,4.0662866E0,4.333921E0],"tree_param":{"num_deleted":"0","num_feature":"7","num_nodes":"113","size_leaf_vector":"1"}},{"base_weights":[-3.6834857E-1,-6.222977E-1,5.964644E-1,-1.977999E-1,-3.876127E-1,9.474897E-2,7.4593824E-1,-2.6726943E-1,-5.410503E-1,9.5716995E-1,2.8059552E-3,5.415662E-1,8.0398995E-1,-3.6668643E-1,-1.7112313E-2,-5.7270867E-1,-2.0959128E-1,1.1664506E-1,3.032185E-1,1.9305469E-1,-2.7501628E-1,-2.0162156E-1,6.118583E-1,8.272941E-1,4.7576317E-1,-4.0740982E-1,2.0926312E-1,4.0359205E-1,-3.0768368E-1,-4.9441603E-1,-6.3637215E-1,2.7857074E-1,-5.244421E-1,-4.100707E-2,5.523809E-1,-3.9994824E-1,3.773222E-2,-4.494183E-1,1.19916715E-1,6.6000366E-1,2.0780344E-1,8.5343105E-1,6.2970597E-1,1.4765286E-1,7.3088115E-1,2.0494047E-1,-1.2911774E-1,2.3000966E-1,-8.391442E-2,2.1328446E-1,-2.8844072E-2,-5.172923E-2,-1.9904126E-1,-1.7644909E-1,-2.457423E-2,-1.5432708E-2,-1.9445919E-1,4.327245E-3,2.0504825E-1,2.269906E-2,-1.8489546E-1,2.3150692E-2,-1.7151116E-1,2.7265802E-1,5.4958265E-2,-1.3985638E-1,8.163392E-2,8.0091275E-2,-8.293406E-2,-2.157722E-3,-1.9354448E-1,-5.9077125E-2,2.0354342E-1,-1.12660274E-1,1.2774043E-1,2.4579577E-1,2.8685707E-1,1.4393067E-1,2.6819864E-1,1.5568885E-1,-7.291609E-2,2.9708073E-2,2.7994823E-1],"categories":[],"categories_nodes":[],"categories_segments":[],"categories_sizes":[],"default_left":[0,0,0,0,0,0,0,0,0,0,0,0,0,0,0,0,0,0,0,0,0,0,0,0,0,0,0,0,0,0,0,0,0,0,0,0,0,0,0,0,0,0,0,0,0,0,0,0,0,0,0,0,0,0,0,0,0,0,0,0,0,0,0,0,0,0,0,0,0,0,0,0,0,0,0,0,0,0,0,0,0,0,0],"id":5,"left_children":[1,3,5,-1,7,9,11,13,15,17,19,21,23,25,27,29,31,-1,-1,33,35,37,39,41,43,45,47,49,51,53,55,57,59,61,63,65,67,69,-1,71,73,75,77,79,81,-1,-1,-1,-1,-1,-1,-1,-1,-1,-1,-1,-1,-1,-1,-1,-1,-1,-1,-1,-1,-1,-1,-1,-1,-1,-1,-1,-1,-1,-1,-1,-1,-1,-1,-1,-1,-1,-1],"loss_changes":[8.3488696E2,2.3183838E1,5.319014E1,0E0,6.6874657E0,1.3014642E1,6.054718E0,5.199916E0,1.5763359E0,8.835411E-2,7.947219E0,6.605152E0,2.8493347E0,3.5976753E0,7.53017E0,4.1801834E-1,2.55478E0,0E0,0E0,7.527794E0,2.4030948E0,1.8893216E0,2.0728073E0,1.4999084E0,2.4417434E0,3.808035E0,3.0901072E0,3.9362836E0,1.6372681E0,2.674389E0,5.032978E-1,7.172167E-1,5.910301E-1,3.4914527E0,4.4750547E0,2.0748491E0,1.3960736E0,7.394055E-1,0E0,1.7333221E0,1.8836129E0,4.2803955E-1,1.5485859E0,2.2408438E0,2.0653725E0,0E0,0E0,0E0,0E0,0E0,0E0,0E0,0E0,0E0,0E0,0E0,0E0,0E0,0E0,0E0,0E0,0E0,0E0,0E0,0E0,0E0,0E0,0E0,0E0,0E0,0E0,0E0,0E0,0E0,0E0,0E0,0E0,0E0,0E0,0E0,0E0,0E0,0E0],"parents":[2147483647,0,0,1,1,2,2,4,4,5,5,6,6,7,7,8,8,9,9,10,10,11,11,12,12,13,13,14,14,15,15,16,16,19,19,20,20,21,21,22,22,23,23,24,24,25,25,26,26,27,27,28,28,29,29,30,30,31,31,32,32,33,33,34,34,35,35,36,36,37,37,39,39,40,40,41,41,42,42,43,43,44,44],"right_children":[2,4,6,-1,8,10,12,14,16,18,20,22,24,26,28,30,32,-1,-1,34,36,38,40,42,44,46,48,50,52,54,56,58,60,62,64,66,68,70,-1,72,74,76,78,80,82,-1,-1,-1,-1,-1,-1,-1,-1,-1,-1,-1,-1,-1,-1,-1,-1,-1,-1,-1,-1,-1,-1,-1,-1,-1,-1,-1,-1,-1,-1,-1,-1,-1,-1,-1,-1,-1,-1],"split_conditions":[3.0370295E-1,1.3130644E-1,4.0694606E-1,-1.977999E-1,2.6421833E-1,2.7607882E-1,5.0614816E-1,2.3702273E-1,3.6496127E-1,1.3647214E-1,2.6171196E-1,1.4285715E-1,3.474978E-1,2.5672406E-1,2.5495097E-1,3.1130314E-1,3.7908503E-1,1.1664506E-1,3.032185E-1,2.2703831E-1,3.674012E-1,4.8343343E-1,3.3218193E-1,1.1268438E0,3.5401145E-1,9.4280906E-2,2.4171671E-1,2.1884406E-1,3.1189144E-1,3.0669728E-1,2.7513674E-1,3.7362725E-1,3.7120062E-1,2.1864326E-1,2.3488809E-1,3.529412E-1,3.088897E-1,4.1150847E-1,1.19916715E-1,1.17803015E-1,3.3310494E-1,2.8689486E-1,2.4253562E-1,3.4725818E-1,6.344684E-1,2.0494047E-1,-1.2911774E-1,2.3000966E-1,-8.391442E-2,2.1328446E-1,-2.8844072E-2,-5.172923E-2,-1.9904126E-1,-1.7644909E-1,-2.457423E-2,-1.5432708E-2,-1.9445919E-1,4.327245E-3,2.0504825E-1,2.269906E-2,-1.8489546E-1,2.3150692E-2,-1.7151116E-1,2.7265802E-1,5.4958265E-2,-1.3985638E-1,8.163392E-2,8.0091275E-2,-8.293406E-2,-2.157722E-3,-1.9354448E-1,-5.9077125E-2,2.0354342E-1,-1.12660274E-1,1.2774043E-1,2.4579577E-1,2.8685707E-1,1.4393067E-1,2.6819864E-1,1.5568885E-1,-7.291609E-2,2.9708073E-2,2.7994823E-1],"split_indices":[5,5,5,0,2,6,5,5,1,0,2,2,0,2,6,0,0,0,0,1,5,5,0,6,3,6,0,2,4,1,2,2,3,0,3,1,2,6,0,0,1,1,2,2,5,0,0,0,0,0,0,0,0,0,0,0,0,0,0,0,0,0,0,0,0,0,0,0,0,0,0,0,0,0,0,0,0,0,0,0,0,0,0],"split_type":[0,0,0,0,0,0,0,0,0,0,0,0,0,0,0,0,0,0,0,0,0,0,0,0,0,0,0,0,0,0,0,0,0,0,0,0,0,0,0,0,0,0,0,0,0,0,0,0,0,0,0,0,0,0,0,0,0,0,0,0,0,0,0,0,0,0,0,0,0,0,0,0,0,0,0,0,0,0,0,0,0,0,0],"sum_hessian":[3.405E3,2.6957932E3,7.092068E2,2.326796E3,3.6899734E2,1.6316621E2,5.460405E2,2.0833731E2,1.6066003E2,1.4812762E1,1.4835345E2,1.2307656E2,4.22964E2,1.4875395E2,5.9583363E1,1.4598851E2,1.4671528E1,1.986977E0,1.2825785E1,8.823588E1,6.0117573E1,1.0473502E1,1.1260306E2,3.9350458E2,2.9459402E1,1.3920395E2,9.54999E0,2.418218E1,3.5401184E1,6.940323E1,7.658527E1,5.7976937E0,8.873835E0,5.39677E1,3.426818E1,4.2758316E1,1.7359255E1,7.5960355E0,2.877467E0,1.0004831E2,1.2554753E1,3.446016E2,4.8903E1,1.3576834E1,1.5882568E1,2.2802546E0,1.369237E2,4.197205E0,5.3527846E0,1.4711487E1,9.470695E0,2.6725935E1,8.675249E0,5.6204113E1,1.3199116E1,1.623604E0,7.496167E1,4.1355457E0,1.6621482E0,1.20163E0,7.6722045E0,4.4837772E1,9.129928E0,1.6690443E1,1.7577738E1,3.9200928E1,3.557389E0,1.0123194E1,7.236062E0,2.648606E0,4.947429E0,1.9075611E0,9.814075E1,3.2188442E0,9.335909E0,2.6545468E2,7.91469E1,3.29979E1,1.5905099E1,6.792899E0,6.783935E0,4.2127843E0,1.1669784E1],"tree_param":{"num_deleted":"0","num_feature":"7","num_nodes":"83","size_leaf_vector":"1"}},{"base_weights":[1.403188E-1,4.8403713E-1,-3.0905122E-1,5.968158E-1,-2.5275478E-1,-8.699624E-2,-4.633697E-1,6.858638E-1,3.9222893E-1,-1.3063687E-1,-4.1185987E-1,3.3000422E-1,-1.2975089E-1,6.057392E-1,-4.685302E-1,7.2489053E-1,4.067274E-1,4.3700787E-1,-1.4960246E-2,2.4404912E-1,-2.0746101E-1,2.5540185E-1,-4.3702704E-1,1.4559606E-1,6.135713E-1,-7.774938E-2,-4.2950755E-1,2.54126E-1,-1.5956742E-3,-5.733939E-1,-4.174335E-1,7.4543935E-1,5.0427264E-1,3.0251873E-1,6.348212E-1,5.1439154E-1,1.6285126E-1,-5.584911E-1,1.314505E-1,7.734412E-1,-4.52646E-2,-2.3791337E-1,5.765752E-1,5.5626726E-1,-1.1029211E-1,-4.6242E-1,-1.4798169E-4,-9.4408624E-2,4.9416715E-1,2.9707888E-1,1.3060804E-1,-3.10742E-1,-1.633993E-2,1.1932869E-1,-4.493974E-1,-5.8184165E-1,9.536473E-2,-3.4137473E-1,-4.9528268E-1,2.4158195E-1,2.1023367E-1,1.7660958E-1,2.6690647E-2,1.0356301E-1,-2.2239326E-1,2.0462406E-1,-1.5050608E-1,2.1348393E-1,1.3274045E-1,2.018266E-3,1.3734935E-1,-1.9177906E-1,-3.0796492E-2,2.5478876E-1,3.119785E-4,9.283191E-2,2.8164992E-1,-6.262882E-2,2.6647493E-1,-9.59789E-2,6.561942E-3,2.9429406E-1,-3.5885822E-2,1.3599497E-2,2.4156938E-1,-1.7229445E-1,-1.2028445E-1,-5.9046905E-2,1.4210828E-1,9.705914E-2,-1.4737369E-1,2.083587E-1,-5.3920235E-2,1.1807185E-1,-1.6048108E-1,-1.2403994E-1,2.7401209E-2,1.4723808E-1,-2.1587273E-2,-1.407597E-1,9.9682316E-2,-3.0664172E-2,-1.7633305E-1,1.3941439E-2,-1.19222194E-1,-1.5345255E-1,-2.995023E-2],"categories":[],"categories_nodes":[],"categories_segments":[],"categories_sizes":[],"default_left":[0,0,0,0,0,0,0,0,0,0,0,0,0,0,0,0,0,0,0,0,0,0,0,0,0,0,0,0,0,0,0,0,0,0,0,0,0,0,0,0,0,0,0,0,0,0,0,0,0,0,0,0,0,0,0,0,0,0,0,0,0,0,0,0,0,0,0,0,0,0,0,0,0,0,0,0,0,0,0,0,0,0,0,0,0,0,0,0,0,0,0,0,0,0,0,0,0,0,0,0,0,0,0,0,0,0,0],"id":6,"left_children":[1,3,5,7,9,11,13,15,17,19,21,23,25,27,29,31,33,35,37,39,41,43,45,47,49,51,53,-1,-1,55,57,59,61,63,65,67,69,71,73,75,77,79,81,83,-1,85,87,89,91,-1,93,95,97,-1,99,101,-1,103,105,-1,-1,-1,-1,-1,-1,-1,-1,-1,-1,-1,-1,-1,-1,-1,-1,-1,-1,-1,-1,-1,-1,-1,-1,-1,-1,-1,-1,-1,-1,-1,-1,-1,-1,-1,-1,-1,-1,-1,-1,-1,-1,-1,-1,-1,-1,-1,-1],"loss_changes":[5.419514E2,1.6533688E2,5.207527E1,3.114502E1,5.0871887E0,1.118229E1,5.2329865E0,1.2778442E1,9.583847E0,4.4018407E0,2.0333023E0,2.9637709E0,8.811431E0,7.04337E-1,4.547165E0,4.3914795E0,3.361065E0,9.956383E0,4.2916603E0,4.044707E0,3.1451154E0,1.1024693E0,1.2273655E0,3.1160545E0,3.9997149E0,6.930806E0,1.5553579E0,0E0,0E0,2.3684158E0,3.409134E0,2.0007324E0,3.1976662E0,4.913395E0,2.811081E0,4.9138565E0,4.86195E0,3.5555053E-1,3.9841177E0,4.237008E-1,2.9133604E0,2.6060061E0,1.5257417E0,4.250375E-1,0E0,4.889679E-1,7.528554E-1,3.90195E0,2.1665807E0,0E0,2.1526937E0,4.211894E0,1.0885918E1,0E0,1.4277229E0,7.586975E-1,0E0,6.7312737E0,1.8509369E0,0E0,0E0,0E0,0E0,0E0,0E0,0E0,0E0,0E0,0E0,0E0,0E0,0E0,0E0,0E0,0E0,0E0,0E0,0E0,0E0,0E0,0E0,0E0,0E0,0E0,0E0,0E0,0E0,0E0,0E0,0E0,0E0,0E0,0E0,0E0,0E0,0E0,0E0,0E0,0E0,0E0,0E0,0E0,0E0,0E0,0E0,0E0,0E0],"parents":[2147483647,0,0,1,1,2,2,3,3,4,4,5,5,6,6,7,7,8,8,9,9,10,10,11,11,12,12,13,13,14,14,15,15,16,16,17,17,18,18,19,19,20,20,21,21,22,22,23,23,24,24,25,25,26,26,29,29,30,30,31,31,32,32,33,33,34,34,35,35,36,36,37,37,38,38,39,39,40,40,41,41,42,42,43,43,45,45,46,46,47,47,48,48,50,50,51,51,52,52,54,54,55,55,57,57,58,58],"right_children":[2,4,6,8,10,12,14,16,18,20,22,24,26,28,30,32,34,36,38,40,42,44,46,48,50,52,54,-1,-1,56,58,60,62,64,66,68,70,72,74,76,78,80,82,84,-1,86,88,90,92,-1,94,96,98,-1,100,102,-1,104,106,-1,-1,-1,-1,-1,-1,-1,-1,-1,-1,-1,-1,-1,-1,-1,-1,-1,-1,-1,-1,-1,-1,-1,-1,-1,-1,-1,-1,-1,-1,-1,-1,-1,-1,-1,-1,-1,-1,-1,-1,-1,-1,-1,-1,-1,-1,-1,-1],"split_conditions":[2.5988886E-1,4.0694606E-1,2.9981267E-1,2.2803509E-1,2.1173272E-1,2.4585451E-1,2.525355E-1,1.8107149E-1,2.607681E-1,4.8343343E-1,1.8051113E-1,2.7536067E-1,3.1164065E-1,3.0628195E-1,2.9361011E-2,2.343835E-1,2.0733653E-1,2.5547984E-1,2.1657404E-1,1.4285715E-1,2.3346807E-1,5.224657E-1,1.1900797E0,6.920457E-2,2.3519242E-1,2.8467048E-2,2.1052632E-1,2.54126E-1,-1.5956742E-3,4.38529E-1,3.3397374E-1,1.6666667E-1,2.2222222E-1,2.0589808E-1,2.2762573E-1,2.1864326E-1,6.421613E-2,3.7339398E-1,2.1864326E-1,4.1150847E-1,2.0986055E-1,1.0293221E0,9.55779E-1,2.1491714E-1,-1.1029211E-1,2.2188008E-1,2.4327695E-1,4.1309617E-2,2.6557964E-1,2.9707888E-1,2.739469E-1,2.9858142E-1,3.4401044E-2,1.1932869E-1,3.249741E-1,2.6559258E-1,9.536473E-2,3.5623524E-2,9.55779E-1,2.4158195E-1,2.1023367E-1,1.7660958E-1,2.6690647E-2,1.0356301E-1,-2.2239326E-1,2.0462406E-1,-1.5050608E-1,2.1348393E-1,1.3274045E-1,2.018266E-3,1.3734935E-1,-1.9177906E-1,-3.0796492E-2,2.5478876E-1,3.119785E-4,9.283191E-2,2.8164992E-1,-6.262882E-2,2.6647493E-1,-9.59789E-2,6.561942E-3,2.9429406E-1,-3.5885822E-2,1.3599497E-2,2.4156938E-1,-1.7229445E-1,-1.2028445E-1,-5.9046905E-2,1.4210828E-1,9.705914E-2,-1.4737369E-1,2.083587E-1,-5.3920235E-2,1.1807185E-1,-1.6048108E-1,-1.2403994E-1,2.7401209E-2,1.4723808E-1,-2.1587273E-2,-1.407597E-1,9.9682316E-2,-3.0664172E-2,-1.7633305E-1,1.3941439E-2,-1.19222194E-1,-1.5345255E-1,-2.995023E-2],"split_indices":[0,5,3,1,1,1,1,5,5,5,0,0,6,3,6,2,0,3,2,2,0,4,6,5,1,4,2,0,0,2,3,0,1,0,1,0,5,5,0,6,1,4,4,1,0,2,0,5,2,0,2,2,4,0,2,0,0,6,4,0,0,0,0,0,0,0,0,0,0,0,0,0,0,0,0,0,0,0,0,0,0,0,0,0,0,0,0,0,0,0,0,0,0,0,0,0,0,0,0,0,0,0,0,0,0,0,0],"split_type":[0,0,0,0,0,0,0,0,0,0,0,0,0,0,0,0,0,0,0,0,0,0,0,0,0,0,0,0,0,0,0,0,0,0,0,0,0,0,0,0,0,0,0,0,0,0,0,0,0,0,0,0,0,0,0,0,0,0,0,0,0,0,0,0,0,0,0,0,0,0,0,0,0,0,0,0,0,0,0,0,0,0,0,0,0,0,0,0,0,0,0,0,0,0,0,0,0,0,0,0,0,0,0,0,0,0,0],"sum_hessian":[3.5067908E3,1.986931E3,1.5198596E3,1.723335E3,2.6359613E2,6.2380536E2,8.9605426E2,1.1990759E3,5.24259E2,1.501628E2,1.13433334E2,5.738561E1,5.6641974E2,3.745349E0,8.923089E2,1.0505931E3,1.4848286E2,4.722518E2,5.200719E1,2.5179726E1,1.2498306E2,3.790366E0,1.0964297E2,3.5689564E1,2.1696045E1,4.8375735E2,8.26624E1,2.4080052E0,1.3373436E0,2.889949E2,6.03314E2,9.589002E2,9.169293E1,1.0351602E2,4.4966835E1,3.6761282E2,1.0463898E2,1.0439045E1,4.1568146E1,8.306663E0,1.6873064E1,1.2098067E2,4.0023966E0,2.6283286E0,1.1620373E0,1.0356495E2,6.078021E0,2.1568188E1,1.4121377E1,1.15989485E1,1.0097097E1,1.00060234E2,3.836971E2,1.494724E0,8.116768E1,2.8662537E2,2.3695312E0,3.0788998E2,2.9542404E2,4.0255136E2,5.563488E2,7.585506E1,1.58378725E1,1.0009169E2,3.4243371E0,4.3555527E1,1.4113066E0,9.5860176E1,2.7175266E2,6.9093E1,3.554597E1,8.525892E0,1.9131521E0,5.5431867E0,3.602496E1,2.9372504E0,5.369412E0,1.5018971E1,1.8540924E0,9.177515E1,2.9205523E1,2.2729988E0,1.7293977E0,1.248395E0,1.3799336E0,3.3763596E1,6.980135E1,4.7083683E0,1.3696527E0,1.0594766E1,1.0973423E1,1.0861474E1,3.2599027E0,7.530394E0,2.566703E0,7.967604E1,2.0384195E1,3.7148132E1,3.4654898E2,7.955218E1,1.615497E0,3.726245E0,2.828991E2,3.8887707E1,2.6900226E2,2.8349823E2,1.1925802E1],"tree_param":{"num_deleted":"0","num_feature":"7","num_nodes":"107","size_leaf_vector":"1"}},{"base_weights":[1.369838E-1,-3.9578912E-1,5.3151083E-1,-5.155684E-1,-1.5038475E-1,6.0197186E-1,-3.7655705E-1,-5.8812374E-1,-4.2077336E-1,6.98081E-2,-3.7584844E-1,4.314186E-1,7.0923656E-1,-1.7833878E-1,-5.405097E-1,-5.9249866E-1,-2.6429006E-1,-2.6072508E-1,-5.102907E-1,-1.18822254E-1,3.123636E-1,-3.278964E-1,-5.7628536E-1,1.1642753E-1,4.8043513E-1,7.184978E-1,2.6753673E-1,-3.0302358E-1,1.4445265E-1,-5.6138134E-1,6.8547234E-2,-1.8592013E-1,-5.6011283E-1,1.3123001E-1,-4.1364434E-1,-3.3987194E-1,2.9832248E-2,-4.5538634E-1,-6.0862935E-1,-2.9394493E-1,-2.9778128E-2,3.4991354E-1,-1.6456716E-1,-3.4246325E-1,3.5841435E-1,-1.407445E-1,-1.78951E-1,-1.7702664E-1,1.4585334E-1,5.568411E-1,3.221875E-1,7.860693E-1,6.762669E-1,-3.94804E-1,4.0750247E-1,-9.6333146E-2,-4.527058E-1,8.253496E-1,-1.6147587E-2,3.1134656E-2,-5.7278806E-1,-7.046645E-2,-1.72991E-1,1.6084048E-1,-1.0537287E-1,-1.5687816E-1,-1.851892E-2,-1.1009311E-1,6.374173E-2,-5.9753146E-2,2.2021583E-1,-1.6360253E-1,-1.05809994E-1,-1.8807189E-1,-1.3006364E-1,-1.10283695E-1,8.328961E-2,-3.5553966E-2,9.816893E-2,6.310538E-2,1.928835E-1,1.0597052E-1,-1.0598702E-1,2.0081542E-1,-1.01809025E-1,-1.0733216E-1,5.3754427E-2,7.752123E-2,-2.0844147E-2,2.091139E-1,1.4717609E-1,1.4971264E-3,1.2230683E-1,2.3722403E-1,-5.516429E-3,1.8633151E-1,2.1829753E-1,-3.7632918E-3,-1.5912959E-1,1.6510774E-1,4.3186923E-3,-7.619032E-2,2.0179932E-1,-1.6856108E-2,-1.860614E-1,3.3376667E-1,2.849909E-2,-1.6733228E-1,6.311785E-2,-8.8877074E-2,-1.7835255E-1],"categories":[],"categories_nodes":[],"categories_segments":[],"categories_sizes":[],"default_left":[0,0,0,0,0,0,0,0,0,0,0,0,0,0,0,0,0,0,0,0,0,0,0,0,0,0,0,0,0,0,0,0,0,0,0,0,0,0,0,0,0,0,0,0,0,0,0,0,0,0,0,0,0,0,0,0,0,0,0,0,0,0,0,0,0,0,0,0,0,0,0,0,0,0,0,0,0,0,0,0,0,0,0,0,0,0,0,0,0,0,0,0,0,0,0,0,0,0,0,0,0,0,0,0,0,0,0,0,0,0,0],"id":7,"left_children":[1,3,5,7,9,11,13,15,17,19,21,23,25,27,29,31,33,35,37,39,41,43,45,47,49,51,53,55,57,59,-1,-1,61,63,65,67,69,71,73,75,77,79,-1,81,83,85,-1,-1,87,89,91,93,95,97,99,101,103,105,107,-1,109,-1,-1,-1,-1,-1,-1,-1,-1,-1,-1,-1,-1,-1,-1,-1,-1,-1,-1,-1,-1,-1,-1,-1,-1,-1,-1,-1,-1,-1,-1,-1,-1,-1,-1,-1,-1,-1,-1,-1,-1,-1,-1,-1,-1,-1,-1,-1,-1,-1,-1],"loss_changes":[7.331704E2,4.3548874E1,1.28443E2,6.6095276E0,2.4264061E1,3.3721252E1,4.612957E0,6.3990784E-1,6.1099854E0,1.1376596E1,2.1310196E0,1.107135E1,4.472412E0,2.7440526E0,1.3933163E0,1.4144897E-1,6.036192E-1,3.6515465E0,1.2259979E0,2.17657E0,3.7058744E0,2.0932293E0,3.147564E-1,2.131085E0,7.3572083E0,2.6538696E0,2.4795604E0,1.4637017E0,2.131678E0,6.4385605E-1,0E0,0E0,1.2801743E0,8.345847E-1,2.3658752E-1,1.9423046E0,5.7614145E0,1.4946365E0,3.7887573E-2,2.0863605E0,3.017133E0,4.149254E0,0E0,1.5823841E0,1.2220756E0,2.9444602E-1,0E0,0E0,2.3260715E0,3.5500946E0,5.566826E0,1.6068726E0,1.5157471E0,2.4589652E-1,1.1792614E0,2.8054132E0,1.8239388E0,6.7385006E-1,2.1609871E0,0E0,2.7963257E-1,0E0,0E0,0E0,0E0,0E0,0E0,0E0,0E0,0E0,0E0,0E0,0E0,0E0,0E0,0E0,0E0,0E0,0E0,0E0,0E0,0E0,0E0,0E0,0E0,0E0,0E0,0E0,0E0,0E0,0E0,0E0,0E0,0E0,0E0,0E0,0E0,0E0,0E0,0E0,0E0,0E0,0E0,0E0,0E0,0E0,0E0,0E0,0E0,0E0,0E0],"parents":[2147483647,0,0,1,1,2,2,3,3,4,4,5,5,6,6,7,7,8,8,9,9,10,10,11,11,12,12,13,13,14,14,15,15,16,16,17,17,18,18,19,19,20,20,21,21,22,22,23,23,24,24,25,25,26,26,27,27,28,28,29,29,32,32,33,33,34,34,35,35,36,36,37,37,38,38,39,39,40,40,41,41,43,43,44,44,45,45,48,48,49,49,50,50,51,51,52,52,53,53,54,54,55,55,56,56,57,57,58,58,60,60],"right_children":[2,4,6,8,10,12,14,16,18,20,22,24,26,28,30,32,34,36,38,40,42,44,46,48,50,52,54,56,58,60,-1,-1,62,64,66,68,70,72,74,76,78,80,-1,82,84,86,-1,-1,88,90,92,94,96,98,100,102,104,106,108,-1,110,-1,-1,-1,-1,-1,-1,-1,-1,-1,-1,-1,-1,-1,-1,-1,-1,-1,-1,-1,-1,-1,-1,-1,-1,-1,-1,-1,-1,-1,-1,-1,-1,-1,-1,-1,-1,-1,-1,-1,-1,-1,-1,-1,-1,-1,-1,-1,-1,-1,-1],"split_conditions":[2.5861976E-1,2.2222222E-1,4.256017E-1,1.9975047E-1,6.438228E-2,3.0320367E-1,6.344684E-1,2.3809524E-1,5.270463E-2,2.4733877E-1,5.7751006E-1,2.5856805E-1,3.4131482E-1,3.197029E-1,4.143354E-1,1.6657415E-1,4.77546E-2,2.1515109E-1,2.607681E-1,2.2803509E-1,2.943724E-1,5.319346E-1,1.9287075E-1,2.5953326E-1,6.452284E-2,2.9361011E-2,3.3333334E-1,2.7819893E-1,2.9422772E-1,2.3550107E-1,6.8547234E-2,-1.8592013E-1,1.315587E-1,1.8601634E-1,2.4951315E-1,7.965662E-2,2.3809524E-1,2.0589808E-1,2.487593E-1,2.3660263E-1,5.5555556E-2,2.6557964E-1,-1.6456716E-1,3.125E-2,2.4961509E-1,1.8999358E-1,-1.78951E-1,-1.7702664E-1,6.421613E-2,2.7681828E-2,2.6997942E-1,4.38529E-1,3.3479238E-1,3.164909E-1,3.4668761E-1,2.7535373E-1,4.4531167E-1,3.2122377E-1,3.3104235E-1,3.1134656E-2,6.676087E-1,-7.046645E-2,-1.72991E-1,1.6084048E-1,-1.0537287E-1,-1.5687816E-1,-1.851892E-2,-1.1009311E-1,6.374173E-2,-5.9753146E-2,2.2021583E-1,-1.6360253E-1,-1.05809994E-1,-1.8807189E-1,-1.3006364E-1,-1.10283695E-1,8.328961E-2,-3.5553966E-2,9.816893E-2,6.310538E-2,1.928835E-1,1.0597052E-1,-1.0598702E-1,2.0081542E-1,-1.01809025E-1,-1.0733216E-1,5.3754427E-2,7.752123E-2,-2.0844147E-2,2.091139E-1,1.4717609E-1,1.4971264E-3,1.2230683E-1,2.3722403E-1,-5.516429E-3,1.8633151E-1,2.1829753E-1,-3.7632918E-3,-1.5912959E-1,1.6510774E-1,4.3186923E-3,-7.619032E-2,2.0179932E-1,-1.6856108E-2,-1.860614E-1,3.3376667E-1,2.849909E-2,-1.6733228E-1,6.311785E-2,-8.8877074E-2,-1.7835255E-1],"split_indices":[0,0,4,1,5,3,5,2,6,3,4,1,5,2,2,2,5,0,5,1,2,6,2,0,6,6,6,2,1,3,0,0,3,3,2,4,2,0,1,3,5,2,0,6,1,2,0,0,5,5,0,2,3,1,3,2,5,0,3,0,4,0,0,0,0,0,0,0,0,0,0,0,0,0,0,0,0,0,0,0,0,0,0,0,0,0,0,0,0,0,0,0,0,0,0,0,0,0,0,0,0,0,0,0,0,0,0,0,0,0,0],"split_type":[0,0,0,0,0,0,0,0,0,0,0,0,0,0,0,0,0,0,0,0,0,0,0,0,0,0,0,0,0,0,0,0,0,0,0,0,0,0,0,0,0,0,0,0,0,0,0,0,0,0,0,0,0,0,0,0,0,0,0,0,0,0,0,0,0,0,0,0,0,0,0,0,0,0,0,0,0,0,0,0,0,0,0,0,0,0,0,0,0,0,0,0,0,0,0,0,0,0,0,0,0,0,0,0,0,0,0,0,0,0,0],"sum_hessian":[3.4860762E3,1.4831771E3,2.0028992E3,9.959591E2,4.8721802E2,1.858989E3,1.4391016E2,5.612096E2,4.3474948E2,2.468395E2,2.4037854E2,7.196891E2,1.1392999E3,6.609241E1,7.781776E1,5.529103E2,8.299342E0,1.5734476E2,2.7740472E2,1.3914188E2,1.0769762E2,1.9609995E2,4.427859E1,9.736639E1,6.223227E2,1.1152886E3,2.401135E1,4.7720592E1,1.8371815E1,7.602435E1,1.7934065E0,2.9048706E2,2.6242322E2,2.3081772E0,5.9911647E0,1.2352675E2,3.381801E1,1.816288E2,9.5775925E1,4.612565E1,9.301623E1,1.0376534E2,3.9322739E0,1.9251485E2,3.5850928E0,2.3174214E0,4.196117E1,3.1312532E0,9.423514E1,4.1798846E2,2.0433426E2,4.2217508E2,6.9311346E2,3.8712485E0,2.0140102E1,2.0733746E1,2.6986845E1,2.716311E0,1.5655503E1,1.1452073E0,7.487914E1,1.3424006E1,2.4899919E2,1.194498E0,1.1136793E0,4.20073E0,1.7904347E0,1.18068405E2,5.458343E0,2.6060434E1,7.757572E0,9.451817E1,8.711063E1,8.4386284E1,1.1389647E1,4.1175602E1,4.9500494E0,7.5034325E1,1.7981907E1,7.145247E1,3.231287E1,2.4654667E0,1.900494E2,2.5080502E0,1.0770425E0,1.3102678E0,1.0071536E0,6.175631E1,3.2478825E1,1.3107994E2,2.869085E2,4.3609398E1,1.6072487E2,4.197515E2,2.4235961E0,3.4060507E2,3.525084E2,1.2999378E0,2.5713108E0,1.4478522E1,5.6615796E0,1.776242E1,2.9713259E0,8.410996E0,1.8575848E1,1.5740247E0,1.1422863E0,4.1857696E0,1.1469734E1,6.519279E0,6.835986E1],"tree_param":{"num_deleted":"0","num_feature":"7","num_nodes":"111","size_leaf_vector":"1"}},{"base_weights":[-3.2460672E-1,-5.674542E-1,4.6213967E-1,-1.826024E-1,-3.2502583E-1,1.4001265E-1,5.8954567E-1,-2.1165022E-1,-4.7818914E-1,8.014661E-1,8.176775E-2,-9.538729E-2,5.943721E-1,-2.525065E-1,2.5854647E-1,-5.122657E-1,-1.4570466E-1,1.0262325E-1,2.5261E-1,2.2051513E-1,-1.4114681E-1,6.05495E-1,2.4031837E-1,-9.575616E-2,-3.7787098E-1,5.8029145E-1,-1.2018223E-1,-4.3354586E-1,-5.7942235E-1,2.9357913E-1,-4.6419564E-1,-2.5840431E-2,4.3755817E-1,-3.185525E-1,1.5026824E-1,5.699721E-1,7.1150494E-1,-4.4173595E-1,4.4013652E-1,-1.2400332E-1,3.481602E-2,-1.439328E-1,-6.316783E-2,-1.2847641E-1,2.589368E-1,-1.1185211E-1,7.871161E-2,-1.4946237E-1,5.847896E-2,-3.4805848E-3,-1.7780301E-1,-3.4833018E-2,1.4613329E-1,-1.6947071E-1,3.6709737E-2,2.7365496E-2,-1.1805688E-1,-6.587706E-2,1.4574006E-1,-1.6093531E-1,-5.122437E-2,-6.690799E-2,9.367881E-2,1.7373967E-1,-6.783196E-2,2.3845793E-1,1.5950207E-1,-1.3271149E-2,-1.82792E-1,-1.6402902E-2,1.6469318E-1],"categories":[],"categories_nodes":[],"categories_segments":[],"categories_sizes":[],"default_left":[0,0,0,0,0,0,0,0,0,0,0,0,0,0,0,0,0,0,0,0,0,0,0,0,0,0,0,0,0,0,0,0,0,0,0,0,0,0,0,0,0,0,0,0,0,0,0,0,0,0,0,0,0,0,0,0,0,0,0,0,0,0,0,0,0,0,0,0,0,0,0],"id":8,"left_children":[1,3,5,-1,7,9,11,13,15,17,19,-1,21,23,25,27,29,-1,-1,31,33,35,37,39,41,43,45,47,49,51,53,55,57,59,61,63,65,67,69,-1,-1,-1,-1,-1,-1,-1,-1,-1,-1,-1,-1,-1,-1,-1,-1,-1,-1,-1,-1,-1,-1,-1,-1,-1,-1,-1,-1,-1,-1,-1,-1],"loss_changes":[5.711225E2,2.2621887E1,2.8863266E1,0E0,5.6986923E0,7.6861157E0,2.401245E0,3.7867966E0,1.5260162E0,1.3299942E-2,5.7849483E0,0E0,1.8344421E0,3.4762545E0,2.0171306E0,4.241295E-1,2.1692781E0,0E0,0E0,6.1632566E0,3.7691216E0,1.427597E0,2.5074515E0,5.481058E0,1.5864763E0,2.8833237E0,8.874058E-1,2.6484785E0,4.8957443E-1,5.893666E-1,5.8960056E-1,2.3959203E0,2.0475483E0,1.3597026E0,1.7578421E0,2.8264236E0,1.3484612E0,2.624374E-1,7.63916E-1,0E0,0E0,0E0,0E0,0E0,0E0,0E0,0E0,0E0,0E0,0E0,0E0,0E0,0E0,0E0,0E0,0E0,0E0,0E0,0E0,0E0,0E0,0E0,0E0,0E0,0E0,0E0,0E0,0E0,0E0,0E0,0E0],"parents":[2147483647,0,0,1,1,2,2,4,4,5,5,6,6,7,7,8,8,9,9,10,10,12,12,13,13,14,14,15,15,16,16,19,19,20,20,21,21,22,22,23,23,24,24,25,25,26,26,27,27,28,28,29,29,30,30,31,31,32,32,33,33,34,34,35,35,36,36,37,37,38,38],"right_children":[2,4,6,-1,8,10,12,14,16,18,20,-1,22,24,26,28,30,-1,-1,32,34,36,38,40,42,44,46,48,50,52,54,56,58,60,62,64,66,68,70,-1,-1,-1,-1,-1,-1,-1,-1,-1,-1,-1,-1,-1,-1,-1,-1,-1,-1,-1,-1,-1,-1,-1,-1,-1,-1,-1,-1,-1,-1,-1,-1],"split_conditions":[3.0370295E-1,1.3130644E-1,4.3509093E-1,-1.826024E-1,2.6421833E-1,2.7607882E-1,4.16874E-1,2.5672406E-1,3.6496127E-1,1.3647214E-1,2.6171196E-1,-9.538729E-2,3.7164706E-1,2.0513217E-1,2.567546E-1,3.1130314E-1,3.7908503E-1,1.0262325E-1,2.5261E-1,2.1388234E-1,3.7339398E-1,2.8885394E-1,3.4460282E-1,1.8107149E-1,2.3519242E-1,2.2709318E-1,2.6753753E-1,3.183704E-1,2.7513674E-1,3.5401145E-1,2.773501E-1,1.8569534E-1,3.1622776E-1,2.883506E-1,2.9223293E-1,3.1785363E-1,3.3218193E-1,6.151493E-1,3.778268E-1,-1.2400332E-1,3.481602E-2,-1.439328E-1,-6.316783E-2,-1.2847641E-1,2.589368E-1,-1.1185211E-1,7.871161E-2,-1.4946237E-1,5.847896E-2,-3.4805848E-3,-1.7780301E-1,-3.4833018E-2,1.4613329E-1,-1.6947071E-1,3.6709737E-2,2.7365496E-2,-1.1805688E-1,-6.587706E-2,1.4574006E-1,-1.6093531E-1,-5.122437E-2,-6.690799E-2,9.367881E-2,1.7373967E-1,-6.783196E-2,2.3845793E-1,1.5950207E-1,-1.3271149E-2,-1.82792E-1,-1.6402902E-2,1.6469318E-1],"split_indices":[5,5,5,0,2,6,4,2,1,0,2,0,0,2,0,0,0,0,0,1,5,1,3,5,1,3,1,1,2,3,4,3,4,3,1,3,0,4,0,0,0,0,0,0,0,0,0,0,0,0,0,0,0,0,0,0,0,0,0,0,0,0,0,0,0,0,0,0,0,0,0],"split_type":[0,0,0,0,0,0,0,0,0,0,0,0,0,0,0,0,0,0,0,0,0,0,0,0,0,0,0,0,0,0,0,0,0,0,0,0,0,0,0,0,0,0,0,0,0,0,0,0,0,0,0,0,0,0,0,0,0,0,0,0,0,0,0,0,0,0,0,0,0,0,0],"sum_hessian":[2.9868677E3,2.2825762E3,7.042914E2,1.9495765E3,3.329998E2,2.0020416E2,5.0408722E2,1.9272295E2,1.4027684E2,1.5169758E1,1.8503441E2,2.3234863E0,5.0176373E2,1.7774162E2,1.4981329E1,1.2674585E2,1.3530985E1,1.9962556E0,1.3173503E1,1.14054756E2,7.097965E1,4.8579196E2,1.5971759E1,7.976754E1,9.797408E1,7.81228E0,7.1690493E0,6.1781925E1,6.496393E1,5.719917E0,7.8110685E0,5.3832687E1,6.0222065E1,4.4062477E1,2.691718E1,3.6864078E2,1.171512E2,3.3446214E0,1.2627137E1,3.1533928E1,4.8233612E1,5.9727863E1,3.824622E1,1.5983965E0,6.2138834E0,4.332825E0,2.836224E0,5.6206303E1,5.575624E0,1.5246071E0,6.343932E1,1.963472E0,3.7564447E0,6.698012E0,1.1130565E0,4.1403122E1,1.2429564E1,3.8757048E0,5.6346363E1,1.6745796E1,2.7316679E1,8.031921E0,1.8885258E1,3.6471667E2,3.9240992E0,7.77109E1,3.94403E1,1.3666784E0,1.977943E0,2.3664417E0,1.0260696E1],"tree_param":{"num_deleted":"0","num_feature":"7","num_nodes":"71","size_leaf_vector":"1"}},{"base_weights":[1.2168186E-1,3.9433303E-1,-2.5169533E-1,4.9424204E-1,-1.5677541E-1,-7.0002005E-2,-4.066722E-1,5.739053E-1,3.25936E-1,-3.436717E-2,-3.1720564E-1,5.0358164E-1,-1.0337915E-1,6.2241E-1,-4.1613013E-1,6.055126E-1,3.3995888E-1,5.425939E-1,2.748327E-1,2.4239354E-1,-1.4663614E-1,-1.7244408E-1,-4.4060522E-1,2.179416E-1,7.2355896E-1,8.388118E-2,-1.6883506E-1,2.7017066E-1,-1.1772906E-1,-5.272597E-1,-3.6437267E-1,6.622111E-1,5.182923E-1,-1.9189367E-1,3.599363E-1,5.773575E-1,-2.986625E-1,2.4290484E-1,6.5699553E-1,5.8128965E-1,9.4395496E-2,-3.1805894E-1,-1.6477806E-3,-2.3340581E-1,6.120126E-1,-4.858121E-1,-3.2054387E-2,3.8615787E-1,-2.0441394E-1,3.364543E-1,2.5965685E-1,-2.9486597E-1,2.3207967E-1,-1.9972624E-1,2.5296465E-1,-5.368833E-1,7.704942E-2,-2.8645012E-1,-4.3969238E-1,1.9944067E-1,6.5409645E-2,1.6271812E-1,5.5141073E-2,5.5086646E-2,1.3374487E-1,1.786737E-1,6.706987E-2,-1.3787964E-1,3.344073E-2,8.076679E-2,-3.435179E-2,2.9528895E-1,1.4414324E-1,-2.4550563E-2,2.1766071E-1,2.751699E-3,1.6728857E-1,-1.09617494E-1,2.9730316E-2,-8.937767E-2,7.789437E-2,-8.716015E-2,8.4461235E-2,-9.533205E-2,3.046751E-1,4.0795E-2,-1.4981289E-1,9.332201E-2,-8.779338E-2,1.8577814E-1,1.0875367E-2,-1.13742076E-1,1.6226359E-1,7.6044574E-2,-1.19203955E-1,9.566893E-2,-1.0990033E-1,-1.2154865E-1,-4.4295855E-2,1.8497825E-1,-2.157424E-2,-2.9027743E-2,-1.6450863E-1,8.938355E-3,-1.0280664E-1,-1.4107122E-1,-5.9255986E-3],"categories":[],"categories_nodes":[],"categories_segments":[],"categories_sizes":[],"default_left":[0,0,0,0,0,0,0,0,0,0,0,0,0,0,0,0,0,0,0,0,0,0,0,0,0,0,0,0,0,0,0,0,0,0,0,0,0,0,0,0,0,0,0,0,0,0,0,0,0,0,0,0,0,0,0,0,0,0,0,0,0,0,0,0,0,0,0,0,0,0,0,0,0,0,0,0,0,0,0,0,0,0,0,0,0,0,0,0,0,0,0,0,0,0,0,0,0,0,0,0,0,0,0,0,0,0,0],"id":9,"left_children":[1,3,5,7,9,11,13,15,17,19,21,23,25,27,29,31,33,35,37,39,41,43,45,47,49,51,53,-1,-1,55,57,59,61,-1,63,65,67,69,71,73,75,77,79,81,83,85,87,89,-1,91,-1,93,95,97,99,101,-1,103,105,-1,-1,-1,-1,-1,-1,-1,-1,-1,-1,-1,-1,-1,-1,-1,-1,-1,-1,-1,-1,-1,-1,-1,-1,-1,-1,-1,-1,-1,-1,-1,-1,-1,-1,-1,-1,-1,-1,-1,-1,-1,-1,-1,-1,-1,-1,-1,-1],"loss_changes":[3.266355E2,1.0217276E2,3.8107407E1,2.0861969E1,5.592216E0,1.201056E1,7.3708954E0,7.6636047E0,5.4606705E0,5.098964E0,2.1276808E0,2.0113306E0,7.2597136E0,2.3449786E0,3.9758835E0,4.286957E0,2.7537918E0,2.9704056E0,4.867422E0,2.3227708E0,2.89636E0,2.936121E0,1.2024956E0,2.7515981E0,7.5679684E-1,8.69974E0,5.762142E0,0E0,0E0,1.8584671E0,2.7946625E0,5.0398254E-1,2.9110336E0,0E0,1.8413563E0,4.6133804E-1,3.4533098E-1,3.6222763E0,1.3284578E0,1.4191318E0,1.3446232E0,1.0906763E0,5.043696E0,1.6974754E0,2.006753E0,5.681343E-1,7.7427644E-1,1.1598806E0,0E0,1.1929353E0,0E0,2.5557644E0,5.888015E0,4.315489E0,3.630179E0,1.0865784E0,0E0,4.411249E0,3.2124825E0,0E0,0E0,0E0,0E0,0E0,0E0,0E0,0E0,0E0,0E0,0E0,0E0,0E0,0E0,0E0,0E0,0E0,0E0,0E0,0E0,0E0,0E0,0E0,0E0,0E0,0E0,0E0,0E0,0E0,0E0,0E0,0E0,0E0,0E0,0E0,0E0,0E0,0E0,0E0,0E0,0E0,0E0,0E0,0E0,0E0,0E0,0E0,0E0],"parents":[2147483647,0,0,1,1,2,2,3,3,4,4,5,5,6,6,7,7,8,8,9,9,10,10,11,11,12,12,13,13,14,14,15,15,16,16,17,17,18,18,19,19,20,20,21,21,22,22,23,23,24,24,25,25,26,26,29,29,30,30,31,31,32,32,34,34,35,35,36,36,37,37,38,38,39,39,40,40,41,41,42,42,43,43,44,44,45,45,46,46,47,47,49,49,51,51,52,52,53,53,54,54,55,55,57,57,58,58],"right_children":[2,4,6,8,10,12,14,16,18,20,22,24,26,28,30,32,34,36,38,40,42,44,46,48,50,52,54,-1,-1,56,58,60,62,-1,64,66,68,70,72,74,76,78,80,82,84,86,88,90,-1,92,-1,94,96,98,100,102,-1,104,106,-1,-1,-1,-1,-1,-1,-1,-1,-1,-1,-1,-1,-1,-1,-1,-1,-1,-1,-1,-1,-1,-1,-1,-1,-1,-1,-1,-1,-1,-1,-1,-1,-1,-1,-1,-1,-1,-1,-1,-1,-1,-1,-1,-1,-1,-1,-1,-1],"split_conditions":[2.5867838E-1,3.59011E-1,3.0320367E-1,2.2803509E-1,2.1173272E-1,2.2580644E-1,2.5778008E-1,1.6643566E-1,2.1864326E-1,4.8343343E-1,5.495298E-1,6.666667E-2,2.6557964E-1,3.0135024E-1,2.9361011E-2,1.9975047E-1,9.834744E-2,2.9411766E-1,2.8345388E-1,1.411667E-1,1.579166E-1,5.319346E-1,1.1900797E0,5.5555556E-2,2.5953326E-1,2.6234162E-1,3.2351694E-1,2.7017066E-1,-1.1772906E-1,4.38529E-1,3.324429E-1,2.4951315E-1,2.3660263E-1,-1.9189367E-1,2.2086306E-1,2.508456E-1,2.5705203E-1,2.607681E-1,3.5623524E-2,3.7196258E-1,2.1663658E-1,1.6641006E-1,7.587407E-1,2.7116308E-1,2.158132E-1,5.493138E-1,2.0961632E-1,2.5988886E-1,-2.0441394E-1,2.6234162E-1,2.5965685E-1,2.5861976E-1,4.1610092E-1,2.9297937E-2,2.9462782E-1,2.8317606E-1,7.704942E-2,3.5623524E-2,8.1113714E-1,1.9944067E-1,6.5409645E-2,1.6271812E-1,5.5141073E-2,5.5086646E-2,1.3374487E-1,1.786737E-1,6.706987E-2,-1.3787964E-1,3.344073E-2,8.076679E-2,-3.435179E-2,2.9528895E-1,1.4414324E-1,-2.4550563E-2,2.1766071E-1,2.751699E-3,1.6728857E-1,-1.09617494E-1,2.9730316E-2,-8.937767E-2,7.789437E-2,-8.716015E-2,8.4461235E-2,-9.533205E-2,3.046751E-1,4.0795E-2,-1.4981289E-1,9.332201E-2,-8.779338E-2,1.8577814E-1,1.0875367E-2,-1.13742076E-1,1.6226359E-1,7.6044574E-2,-1.19203955E-1,9.566893E-2,-1.0990033E-1,-1.2154865E-1,-4.4295855E-2,1.8497825E-1,-2.157424E-2,-2.9027743E-2,-1.6450863E-1,8.938355E-3,-1.0280664E-1,-1.4107122E-1,-5.9255986E-3],"split_indices":[3,5,3,1,1,0,1,5,0,5,5,6,2,0,6,1,0,5,2,2,3,6,6,6,2,3,2,0,0,2,1,2,3,0,6,3,1,5,5,6,0,0,4,0,3,4,2,1,0,3,0,2,5,5,3,0,0,6,5,0,0,0,0,0,0,0,0,0,0,0,0,0,0,0,0,0,0,0,0,0,0,0,0,0,0,0,0,0,0,0,0,0,0,0,0,0,0,0,0,0,0,0,0,0,0,0,0],"split_type":[0,0,0,0,0,0,0,0,0,0,0,0,0,0,0,0,0,0,0,0,0,0,0,0,0,0,0,0,0,0,0,0,0,0,0,0,0,0,0,0,0,0,0,0,0,0,0,0,0,0,0,0,0,0,0,0,0,0,0,0,0,0,0,0,0,0,0,0,0,0,0,0,0,0,0,0,0,0,0,0,0,0,0,0,0,0,0,0,0,0,0,0,0,0,0,0,0,0,0,0,0,0,0,0,0,0,0],"sum_hessian":[3.206571E3,1.8532307E3,1.3533405E3,1.5689102E3,2.8432047E2,6.2364136E2,7.296991E2,1.0632424E3,5.0566776E2,1.6195956E2,1.2236091E2,3.3519737E1,5.901216E2,6.055123E0,7.23644E2,9.352917E2,1.2795071E2,9.467316E1,4.109946E2,4.640497E1,1.155546E2,5.740999E1,6.495092E1,1.5449431E1,1.8070305E1,1.527742E2,4.373474E2,4.84088E0,1.2142427E0,2.2701917E2,4.9662482E2,5.628272E2,3.7246454E2,1.9372661E0,1.2601344E2,9.121744E1,3.4557173E0,3.8081494E2,3.0179653E1,1.3215506E1,3.318946E1,5.240334E1,6.3151264E1,5.3922054E1,3.487932E0,5.830973E1,6.641189E0,1.34957E1,1.9537319E0,5.7530317E0,1.2317274E1,4.268797E1,1.1008623E2,4.079938E2,2.9353592E1,2.2457808E2,2.4410858E0,2.464556E2,2.501692E2,5.590692E2,3.757954E0,3.468509E2,2.5613657E1,4.2302727E1,8.371072E1,8.609958E1,5.1178603E0,2.3952174E0,1.0604999E0,3.5492682E2,2.5888132E1,8.970436E0,2.1209217E1,2.4384027E0,1.0777103E1,2.8893576E1,4.2958856E0,4.717479E1,5.2285495E0,2.9528883E1,3.362238E1,4.8929585E1,4.992471E0,1.1200492E0,2.3678827E0,1.0521662E0,5.7257565E1,2.7829976E0,3.8581915E0,7.6377544E0,5.8579454E0,1.0883944E0,4.664637E0,6.489705E0,3.6198265E1,9.654654E1,1.3539685E1,8.1133125E1,3.268607E2,1.3427063E1,1.5926529E1,5.94796E0,2.1863011E2,3.7281605E1,2.09174E2,2.3309492E2,1.7074282E1],"tree_param":{"num_deleted":"0","num_feature":"7","num_nodes":"107","size_leaf_vector":"1"}},{"base_weights":[1.1477153E-1,-3.7294993E-1,4.1286018E-1,-5.1753825E-1,-2.2160603E-1,4.7322926E-1,-3.0465487E-1,-5.7657236E-1,-4.575788E-1,-5.019853E-2,-3.9582396E-1,3.3835277E-1,6.1077976E-1,3.103297E-2,-4.1248792E-1,-1.7384529E-1,7.690908E-3,-3.736765E-1,-5.144014E-1,-1.5696889E-1,2.2363128E-1,-4.0157688E-1,1.6881388E-1,1.2073714E-1,3.9246693E-1,6.496822E-1,5.115614E-1,-1.6164702E-1,5.185186E-1,-2.8048268E-1,-5.559087E-1,-4.4840464E-1,-3.6755938E-3,3.7089974E-2,-5.1929164E-1,-4.4644156E-1,-1.1525349E-1,-3.0782345E-1,2.9484668E-1,-5.146963E-2,-4.1687566E-1,7.364794E-1,7.973731E-2,4.864472E-1,2.740041E-1,5.832414E-1,6.892721E-1,5.65022E-1,3.865725E-1,-5.238127E-1,4.5661576E-2,3.2733154E-1,2.3253919E-1,-3.658991E-1,2.413293E-1,-1.7098692E-1,1.4059015E-3,-1.5930279E-1,-6.426941E-2,-1.5034476E-1,4.602779E-2,-1.6180137E-1,-9.988416E-2,-1.7005764E-1,-7.394865E-2,1.7253187E-2,-5.518942E-2,-1.6193815E-1,-1.48194665E-2,1.0783036E-1,-1.03784285E-1,-9.529591E-2,1.15493305E-1,-1.4463209E-1,-1.05232395E-1,-1.0960611E-1,2.6905215E-1,-1.6026092E-1,3.3972096E-2,1.5095145E-1,-1.9406126E-1,-8.403422E-2,9.683587E-2,2.0821114E-1,1.5398815E-1,2.0854428E-1,5.375752E-2,1.7377822E-1,-8.025319E-2,1.6700645E-1,6.106731E-2,3.771721E-2,-1.8429947E-1,-1.0410348E-1,9.313E-2,1.7788759E-1,-7.316727E-2,-4.6939243E-2,-1.5741545E-1,1.9966255E-1,-6.595754E-2],"categories":[],"categories_nodes":[],"categories_segments":[],"categories_sizes":[],"default_left":[0,0,0,0,0,0,0,0,0,0,0,0,0,0,0,0,0,0,0,0,0,0,0,0,0,0,0,0,0,0,0,0,0,0,0,0,0,0,0,0,0,0,0,0,0,0,0,0,0,0,0,0,0,0,0,0,0,0,0,0,0,0,0,0,0,0,0,0,0,0,0,0,0,0,0,0,0,0,0,0,0,0,0,0,0,0,0,0,0,0,0,0,0,0,0,0,0,0,0,0,0],"id":10,"left_children":[1,3,5,7,9,11,13,15,17,19,21,23,25,27,29,-1,-1,31,33,35,37,39,-1,41,43,45,47,49,51,53,55,57,59,-1,61,63,65,67,69,71,73,75,77,79,81,83,85,87,89,91,93,95,-1,97,99,-1,-1,-1,-1,-1,-1,-1,-1,-1,-1,-1,-1,-1,-1,-1,-1,-1,-1,-1,-1,-1,-1,-1,-1,-1,-1,-1,-1,-1,-1,-1,-1,-1,-1,-1,-1,-1,-1,-1,-1,-1,-1,-1,-1,-1,-1],"loss_changes":[4.6026025E2,2.6167206E1,8.5247345E1,1.9076843E0,1.7555916E1,3.3421936E1,5.554165E0,5.502014E-1,1.2819061E0,8.742412E0,1.8347588E0,1.0756645E1,3.1267395E0,3.6671255E0,2.0389843E0,0E0,0E0,3.5514736E0,6.311188E-1,2.543069E0,3.2684622E0,1.5349808E0,0E0,4.590269E0,8.041809E0,1.2815857E0,1.4996262E0,2.1340063E0,2.881391E-1,2.8690248E0,4.3222618E-1,1.9541874E0,1.8432623E0,0E0,4.9471283E-1,5.034857E-1,2.2558777E0,5.974133E-1,3.2097654E0,1.6682388E0,1.0307884E0,2.3375378E0,3.6348972E0,8.061966E0,8.9330635E0,1.546257E0,1.0609436E0,2.2640915E0,2.3834295E0,6.8348646E-1,2.0616403E0,1.3676052E0,0E0,1.7143874E0,1.9811444E0,0E0,0E0,0E0,0E0,0E0,0E0,0E0,0E0,0E0,0E0,0E0,0E0,0E0,0E0,0E0,0E0,0E0,0E0,0E0,0E0,0E0,0E0,0E0,0E0,0E0,0E0,0E0,0E0,0E0,0E0,0E0,0E0,0E0,0E0,0E0,0E0,0E0,0E0,0E0,0E0,0E0,0E0,0E0,0E0,0E0,0E0],"parents":[2147483647,0,0,1,1,2,2,3,3,4,4,5,5,6,6,7,7,8,8,9,9,10,10,11,11,12,12,13,13,14,14,17,17,18,18,19,19,20,20,21,21,23,23,24,24,25,25,26,26,27,27,28,28,29,29,30,30,31,31,32,32,34,34,35,35,36,36,37,37,38,38,39,39,40,40,41,41,42,42,43,43,44,44,45,45,46,46,47,47,48,48,49,49,50,50,51,51,53,53,54,54],"right_children":[2,4,6,8,10,12,14,16,18,20,22,24,26,28,30,-1,-1,32,34,36,38,40,-1,42,44,46,48,50,52,54,56,58,60,-1,62,64,66,68,70,72,74,76,78,80,82,84,86,88,90,92,94,96,-1,98,100,-1,-1,-1,-1,-1,-1,-1,-1,-1,-1,-1,-1,-1,-1,-1,-1,-1,-1,-1,-1,-1,-1,-1,-1,-1,-1,-1,-1,-1,-1,-1,-1,-1,-1,-1,-1,-1,-1,-1,-1,-1,-1,-1,-1,-1,-1],"split_conditions":[2.506696E-1,2.0589808E-1,3.846154E-1,1.6666667E-1,6.551218E-2,3.1225467E-1,4.8019603E-1,2.2887333E-1,5.962848E-2,2.4583267E-1,3.088897E-1,2.5867838E-1,6.127795E-2,3.3218193E-1,7.1913856E-1,-1.7384529E-1,7.690908E-3,5.5363655E-2,1.2403473E-1,1.9975047E-1,2.241429E-1,2.0733653E-1,1.6881388E-1,2.511684E-1,4.756515E-2,3.4212866E-1,3.4668761E-1,3.9182517E-1,4.4549224E-1,3.514861E-1,4.143354E-1,4.9937617E-2,2.880756E-2,3.7089974E-2,2.2766042E-1,2.2222222E-1,2.8467048E-2,5.2342393E-2,2.8702217E-1,1.53393E-1,2.2766042E-1,2.2394983E-1,2.5257295E-1,3.4102967E-1,5.270463E-2,2.8467048E-2,4.38529E-1,3.853542E-1,1E-1,2.2803509E-1,2.8079557E-1,4.2047065E-1,2.3253919E-1,2.7745578E-1,3.7194428E-1,-1.7098692E-1,1.4059015E-3,-1.5930279E-1,-6.426941E-2,-1.5034476E-1,4.602779E-2,-1.6180137E-1,-9.988416E-2,-1.7005764E-1,-7.394865E-2,1.7253187E-2,-5.518942E-2,-1.6193815E-1,-1.48194665E-2,1.0783036E-1,-1.03784285E-1,-9.529591E-2,1.15493305E-1,-1.4463209E-1,-1.05232395E-1,-1.0960611E-1,2.6905215E-1,-1.6026092E-1,3.3972096E-2,1.5095145E-1,-1.9406126E-1,-8.403422E-2,9.683587E-2,2.0821114E-1,1.5398815E-1,2.0854428E-1,5.375752E-2,1.7377822E-1,-8.025319E-2,1.6700645E-1,6.106731E-2,3.771721E-2,-1.8429947E-1,-1.0410348E-1,9.313E-2,1.7788759E-1,-7.316727E-2,-4.6939243E-2,-1.5741545E-1,1.9966255E-1,-6.595754E-2],"split_indices":[0,0,5,0,5,3,4,2,5,3,2,3,4,0,4,0,0,5,3,1,1,0,0,0,6,3,1,6,6,0,2,6,4,0,2,0,4,6,3,5,0,3,0,2,6,4,2,3,6,3,0,6,0,3,0,0,0,0,0,0,0,0,0,0,0,0,0,0,0,0,0,0,0,0,0,0,0,0,0,0,0,0,0,0,0,0,0,0,0,0,0,0,0,0,0,0,0,0,0,0,0],"split_type":[0,0,0,0,0,0,0,0,0,0,0,0,0,0,0,0,0,0,0,0,0,0,0,0,0,0,0,0,0,0,0,0,0,0,0,0,0,0,0,0,0,0,0,0,0,0,0,0,0,0,0,0,0,0,0,0,0,0,0,0,0,0,0,0,0,0,0,0,0,0,0,0,0,0,0,0,0,0,0,0,0,0,0,0,0,0,0,0,0,0,0,0,0,0,0,0,0,0,0,0,0],"sum_hessian":[3.1637607E3,1.2000435E3,1.9637173E3,6.124817E2,5.8756177E2,1.8116334E3,1.5208379E2,3.042806E2,3.0820108E2,2.9681906E2,2.9074274E2,9.1645465E2,8.9517883E2,3.7149227E1,1.14934555E2,3.028539E2,1.4266902E0,1.2750605E2,1.8069504E2,2.1385898E2,8.296007E1,2.8958575E2,1.156975E0,1.8315263E2,7.33302E2,6.390618E2,2.5611697E2,2.7104507E1,1.0044722E1,6.138819E1,5.354636E1,1.0590483E2,2.160122E1,1.1897254E0,1.7950531E2,2.5714956E1,1.8814403E2,9.410501E0,7.354957E1,1.2307072E1,2.772787E2,1.03750725E1,1.7277757E2,4.0717276E2,3.2612924E2,2.4448795E2,3.9457388E2,1.7692256E2,7.919443E1,9.311207E0,1.77933E1,7.060175E0,2.9845467E0,5.300972E1,8.378471E0,5.2221077E1,1.3252845E0,7.7351494E1,2.8553337E1,4.6588044E0,1.6942415E1,1.6036005E2,1.9145262E1,1.4903994E1,1.0810963E1,5.358232E1,1.345617E2,4.3853216E0,5.025179E0,6.721393E1,6.3356385E0,7.8137527E0,4.493319E0,1.3638986E2,1.4088882E2,1.1557374E0,9.219336E0,8.167304E0,1.6461026E2,4.0179947E2,5.373297E0,2.6004198E1,3.0012506E2,9.116393E1,1.53324E2,3.89722E2,4.8519034E0,1.7424664E2,2.6759076E0,3.998545E1,3.9208973E1,1.0913156E0,8.219892E0,7.040777E0,1.0752522E1,4.793208E0,2.2669666E0,2.3717972E1,2.9291748E1,4.1333785E0,4.2450933E0],"tree_param":{"num_deleted":"0","num_feature":"7","num_nodes":"101","size_leaf_vector":"1"}},{"base_weights":[-2.9175502E-1,-5.2808166E-1,3.625582E-1,-5.7279927E-1,-2.7978468E-1,1.2587272E-1,4.7419223E-1,-1.7200871E-1,-3.166389E-1,-1.7733486E-1,-4.428331E-1,7.185969E-1,7.225045E-2,4.8461497E-1,1.6889924E-1,5.4344866E-2,-1.4011782E-1,-2.76336E-1,-8.078765E-3,-4.8802897E-1,-4.1850246E-2,-1.2316616E-1,2.4379559E-1,-1.22252196E-1,2.0496479E-1,1.5064397E-1,4.9513796E-1,-4.4558647E-1,3.5371858E-1,5.135305E-1,-3.008897E-1,6.5936196E-1,-2.0663019E-1,-2.5154448E-1,-5.128678E-1,3.1563032E-1,-3.8192227E-1,3.076858E-2,-3.8982904E-1,5.4638636E-1,1.110632E-1,5.820543E-1,-2.3305431E-1,5.1499593E-1,3.4203205E-1,-2.0571873E-2,-1.793927E-1,-2.0723669E-2,4.4834274E-1,-2.570672E-3,2.5303173E-1,1.4022897E-1,-9.440518E-2,-1.78028E-2,2.1998033E-1,2.511285E-3,-1.15100935E-1,-1.1704904E-1,1.4886285E-1,-1.1374803E-1,-1.6601402E-1,-2.5420101E-2,1.4718874E-1,5.0753575E-2,-1.5245448E-1,-4.8086587E-2,7.706473E-2,-1.3818203E-1,1.0826184E-1,-1.3981475E-1,1.9099815E-1,-5.1184047E-2,6.044655E-2,1.967076E-1,1.4140946E-2,1.2915534E-1,1.7057674E-1,6.727264E-2,1.5580072E-1,1.731259E-1,2.0171031E-2],"categories":[],"categories_nodes":[],"categories_segments":[],"categories_sizes":[],"default_left":[0,0,0,0,0,0,0,0,0,0,0,0,0,0,0,0,0,0,0,0,0,0,0,0,0,0,0,0,0,0,0,0,0,0,0,0,0,0,0,0,0,0,0,0,0,0,0,0,0,0,0,0,0,0,0,0,0,0,0,0,0,0,0,0,0,0,0,0,0,0,0,0,0,0,0,0,0,0,0,0,0],"id":11,"left_children":[1,3,5,7,9,11,13,-1,15,17,19,21,23,25,27,-1,-1,29,31,33,35,-1,-1,37,39,41,43,45,47,49,51,53,55,57,59,61,63,65,67,69,71,73,-1,75,77,-1,-1,-1,79,-1,-1,-1,-1,-1,-1,-1,-1,-1,-1,-1,-1,-1,-1,-1,-1,-1,-1,-1,-1,-1,-1,-1,-1,-1,-1,-1,-1,-1,-1,-1,-1],"loss_changes":[3.995649E2,2.0911865E1,1.8063522E1,5.0231934E-2,4.792227E0,6.9782352E0,1.4000702E0,0E0,5.157779E-1,3.0263157E0,2.006588E0,2.270626E0,5.289733E0,1.5062103E0,2.07804E0,0E0,0E0,2.3655663E0,9.112189E0,4.6088982E-1,1.6308719E0,0E0,0E0,3.4245946E0,3.8380027E0,6.52503E0,1.1483307E0,2.0905834E-1,5.7335603E-1,6.6289306E-1,1.3256245E0,8.8105106E-1,2.019223E0,1.3864448E0,2.7724648E-1,5.042905E-1,5.604715E-1,2.3718662E0,1.78125E0,2.6708264E0,2.495607E0,3.996508E-1,0E0,1.4921188E0,9.9026585E-1,0E0,0E0,0E0,5.112903E-1,0E0,0E0,0E0,0E0,0E0,0E0,0E0,0E0,0E0,0E0,0E0,0E0,0E0,0E0,0E0,0E0,0E0,0E0,0E0,0E0,0E0,0E0,0E0,0E0,0E0,0E0,0E0,0E0,0E0,0E0,0E0,0E0],"parents":[2147483647,0,0,1,1,2,2,3,3,4,4,5,5,6,6,8,8,9,9,10,10,11,11,12,12,13,13,14,14,17,17,18,18,19,19,20,20,23,23,24,24,25,25,26,26,27,27,28,28,29,29,30,30,31,31,32,32,33,33,34,34,35,35,36,36,37,37,38,38,39,39,40,40,41,41,43,43,44,44,48,48],"right_children":[2,4,6,8,10,12,14,-1,16,18,20,22,24,26,28,-1,-1,30,32,34,36,-1,-1,38,40,42,44,46,48,50,52,54,56,58,60,62,64,66,68,70,72,74,-1,76,78,-1,-1,-1,80,-1,-1,-1,-1,-1,-1,-1,-1,-1,-1,-1,-1,-1,-1,-1,-1,-1,-1,-1,-1,-1,-1,-1,-1,-1,-1,-1,-1,-1,-1,-1,-1],"split_conditions":[2.9411766E-1,1.3130644E-1,4.4531167E-1,1.6641006E-1,2.6997942E-1,2.7607882E-1,3.7164706E-1,-1.7200871E-1,1.1094004E-1,2.2477613E-1,3.6496127E-1,2.4087441E-1,3.59011E-1,4.5746696E-1,3.4460282E-1,5.4344866E-2,-1.4011782E-1,9.4280906E-2,2.2086306E-1,2.696137E-1,3.7908503E-1,-1.2316616E-1,2.4379559E-1,2.739469E-1,3.451972E-1,4.4549224E-1,1.1268438E0,6.151493E-1,3.778268E-1,1.1549912E-1,1.0338683E-1,1.17803015E-1,2.1884406E-1,3.164909E-1,1.7460757E-1,1.6641006E-1,3.7120062E-1,2.2518867E-1,3.5355338E-1,3.2430297E-1,1.874085E-1,4.2934754E-1,-2.3305431E-1,6.344684E-1,2.4253562E-1,-2.0571873E-2,-1.793927E-1,-2.0723669E-2,4.143354E-1,-2.570672E-3,2.5303173E-1,1.4022897E-1,-9.440518E-2,-1.78028E-2,2.1998033E-1,2.511285E-3,-1.15100935E-1,-1.1704904E-1,1.4886285E-1,-1.1374803E-1,-1.6601402E-1,-2.5420101E-2,1.4718874E-1,5.0753575E-2,-1.5245448E-1,-4.8086587E-2,7.706473E-2,-1.3818203E-1,1.0826184E-1,-1.3981475E-1,1.9099815E-1,-5.1184047E-2,6.044655E-2,1.967076E-1,1.4140946E-2,1.2915534E-1,1.7057674E-1,6.727264E-2,1.5580072E-1,1.731259E-1,2.0171031E-2],"split_indices":[5,5,5,6,0,6,0,0,5,5,1,4,5,4,3,0,0,6,6,2,0,0,0,2,6,6,6,4,0,4,0,0,2,1,5,6,3,1,1,4,2,6,0,5,2,0,0,0,2,0,0,0,0,0,0,0,0,0,0,0,0,0,0,0,0,0,0,0,0,0,0,0,0,0,0,0,0,0,0,0,0],"split_type":[0,0,0,0,0,0,0,0,0,0,0,0,0,0,0,0,0,0,0,0,0,0,0,0,0,0,0,0,0,0,0,0,0,0,0,0,0,0,0,0,0,0,0,0,0,0,0,0,0,0,0,0,0,0,0,0,0,0,0,0,0,0,0,0,0,0,0,0,0,0,0,0,0,0,0,0,0,0,0,0,0],"sum_hessian":[2.581741E3,1.8968312E3,6.849098E2,1.606244E3,2.9058722E2,2.2019081E2,4.64719E2,1.6014857E3,4.7583375E0,1.7973817E2,1.1084903E2,1.7238672E1,2.0295213E2,4.4880917E2,1.590981E1,1.0567925E0,3.7015448E0,1.1300609E2,6.6732086E1,9.942544E1,1.1423594E1,1.0667748E0,1.6171898E1,8.2346344E1,1.2060579E2,1.4177243E1,4.3463193E2,3.352504E0,1.2557305E1,2.8065863E0,1.101995E2,1.4767962E1,5.1964127E1,1.0508045E1,8.891739E1,5.6042895E0,5.8193054E0,5.295033E1,2.9396013E1,2.4975908E1,9.562988E1,9.9306E0,4.2466435E0,3.826396E2,5.199234E1,1.3824015E0,1.9701024E0,2.345804E0,1.0211502E1,1.4639024E0,1.3426839E0,1.3635865E0,1.08835915E2,1.3953897E0,1.3372573E1,2.3896435E1,2.806769E1,9.268134E0,1.2399113E0,2.3085236E1,6.583215E1,1.86145E0,3.7428396E0,1.0213504E0,4.797955E0,2.8857775E1,2.4092554E1,2.7216425E1,2.1795883E0,1.703896E0,2.3272013E1,2.3023722E1,7.260616E1,8.530497E0,1.400103E0,1.5203003E2,2.3060956E2,3.259975E1,1.9392588E1,7.2485785E0,2.9629233E0],"tree_param":{"num_deleted":"0","num_feature":"7","num_nodes":"81","size_leaf_vector":"1"}},{"base_weights":[1.07215844E-1,3.3759627E-1,-1.8896024E-1,4.3610066E-1,4.305855E-3,-1.5933175E-2,-3.5451084E-1,5.124568E-1,2.4484928E-1,1.3568766E-1,-1.7903589E-1,3.2006773E-1,-5.7879843E-2,-4.937343E-1,-2.9649603E-1,6.0706997E-1,4.5007756E-1,1.1588744E-1,3.3366954E-1,2.2127075E-1,-5.2188914E-2,-2.3456372E-1,9.387628E-2,4.0214705E-1,-5.1571462E-2,-1.6217424E-2,-3.3034685E-1,-5.044194E-1,6.75443E-2,-2.1763091E-1,-3.8796824E-1,6.1200786E-1,-7.225634E-2,4.623973E-1,2.2949454E-1,1.9713604E-1,-1.474975E-1,6.2194407E-1,2.856621E-1,1.449441E-1,5.3685963E-1,-3.260287E-1,1.7782423E-1,-2.4846691E-1,3.4798774E-1,-2.4201286E-1,3.0488348E-1,2.2229874E-1,6.130509E-1,3.654999E-1,-2.1731475E-1,-3.7054753E-1,1.8109553E-2,4.0352306E-1,-3.6157537E-1,-1.864115E-1,-5.221394E-1,1.4045925E-1,-2.7797893E-1,-4.7208494E-1,-2.8911906E-1,1.8485369E-1,9.580633E-2,1.4569622E-1,9.225428E-2,-1.5543481E-2,1.7528167E-1,2.9887052E-2,1.9481817E-1,-9.058893E-2,1.5599817E-1,1.2548861E-1,2.3186451E-1,1.5788098E-1,6.249052E-2,6.0755424E-2,-4.8107103E-2,-1.4726256E-1,1.8185471E-1,1.22799605E-1,-1.4284572E-1,1.12269364E-1,-6.452498E-2,-5.0163828E-2,-1.1649226E-1,3.5618383E-2,1.2519959E-1,4.3717165E-2,-1.684434E-1,2.2769298E-1,-2.3903225E-2,1.5135686E-1,-3.6047027E-3,7.425184E-3,2.0528951E-1,2.061225E-1,-1.6081661E-2,-1.0489327E-1,4.9545597E-2,-1.5535134E-1,1.1218898E-2,-2.8815225E-2,2.8768163E-2,-9.645469E-2,2.8281006E-1,-1.1535617E-1,1.595635E-1,-1.01599745E-1,1.9444092E-1,-1.6568893E-1,-1.289079E-1,1.1624E-1,-4.104071E-2,-9.252793E-2,4.3548185E-2,-8.017169E-2,-1.515867E-1,-1.0693419E-1,7.185055E-3],"categories":[],"categories_nodes":[],"categories_segments":[],"categories_sizes":[],"default_left":[0,0,0,0,0,0,0,0,0,0,0,0,0,0,0,0,0,0,0,0,0,0,0,0,0,0,0,0,0,0,0,0,0,0,0,0,0,0,0,0,0,0,0,0,0,0,0,0,0,0,0,0,0,0,0,0,0,0,0,0,0,0,0,0,0,0,0,0,0,0,0,0,0,0,0,0,0,0,0,0,0,0,0,0,0,0,0,0,0,0,0,0,0,0,0,0,0,0,0,0,0,0,0,0,0,0,0,0,0,0,0,0,0,0,0,0,0,0,0],"id":12,"left_children":[1,3,5,7,9,11,13,15,17,19,21,23,25,27,29,31,33,35,37,39,41,43,45,47,49,51,53,55,-1,57,59,61,-1,63,65,67,69,71,73,75,77,79,81,83,85,87,89,91,93,95,97,99,101,103,105,107,109,111,113,115,117,-1,-1,-1,-1,-1,-1,-1,-1,-1,-1,-1,-1,-1,-1,-1,-1,-1,-1,-1,-1,-1,-1,-1,-1,-1,-1,-1,-1,-1,-1,-1,-1,-1,-1,-1,-1,-1,-1,-1,-1,-1,-1,-1,-1,-1,-1,-1,-1,-1,-1,-1,-1,-1,-1,-1,-1,-1,-1],"loss_changes":[1.9826382E2,5.3650238E1,3.641709E1,1.8294922E1,9.028766E0,8.795987E0,5.1017227E0,5.0418243E0,4.10585E0,3.5221963E0,2.3933911E0,2.1338081E0,6.2891536E0,1.5700493E0,3.2422485E0,1.633606E0,1.3792801E0,3.2197566E0,2.7801743E0,3.540084E0,4.4129257E0,1.1419058E0,1.9994566E0,2.020237E0,1.0069649E0,5.8694572E0,1.8301487E0,9.572487E-1,0E0,5.43972E0,1.6281719E0,2.34375E-1,0E0,1.7118607E0,3.1140022E0,4.9794135E0,3.8401957E0,5.8846855E-1,3.3350868E0,2.1824498E0,2.3552132E0,3.7183022E0,3.0302641E0,1.387878E0,5.36409E-3,1.4493735E0,3.0517502E0,2.1390762E0,1.0560389E0,6.013597E-1,5.754603E-1,2.5801663E0,3.9198463E0,1.6604692E0,1.6604385E0,1.672211E0,2.553482E-1,2.5669522E0,2.8045254E0,6.3409615E-1,2.1195498E0,0E0,0E0,0E0,0E0,0E0,0E0,0E0,0E0,0E0,0E0,0E0,0E0,0E0,0E0,0E0,0E0,0E0,0E0,0E0,0E0,0E0,0E0,0E0,0E0,0E0,0E0,0E0,0E0,0E0,0E0,0E0,0E0,0E0,0E0,0E0,0E0,0E0,0E0,0E0,0E0,0E0,0E0,0E0,0E0,0E0,0E0,0E0,0E0,0E0,0E0,0E0,0E0,0E0,0E0,0E0,0E0,0E0,0E0],"parents":[2147483647,0,0,1,1,2,2,3,3,4,4,5,5,6,6,7,7,8,8,9,9,10,10,11,11,12,12,13,13,14,14,15,15,16,16,17,17,18,18,19,19,20,20,21,21,22,22,23,23,24,24,25,25,26,26,27,27,29,29,30,30,31,31,33,33,34,34,35,35,36,36,37,37,38,38,39,39,40,40,41,41,42,42,43,43,44,44,45,45,46,46,47,47,48,48,49,49,50,50,51,51,52,52,53,53,54,54,55,55,56,56,57,57,58,58,59,59,60,60],"right_children":[2,4,6,8,10,12,14,16,18,20,22,24,26,28,30,32,34,36,38,40,42,44,46,48,50,52,54,56,-1,58,60,62,-1,64,66,68,70,72,74,76,78,80,82,84,86,88,90,92,94,96,98,100,102,104,106,108,110,112,114,116,118,-1,-1,-1,-1,-1,-1,-1,-1,-1,-1,-1,-1,-1,-1,-1,-1,-1,-1,-1,-1,-1,-1,-1,-1,-1,-1,-1,-1,-1,-1,-1,-1,-1,-1,-1,-1,-1,-1,-1,-1,-1,-1,-1,-1,-1,-1,-1,-1,-1,-1,-1,-1,-1,-1,-1,-1,-1,-1],"split_conditions":[2.5856805E-1,2.2477613E-1,2.9981267E-1,2.2870874E-1,5.0614816E-1,2.3660263E-1,2.9361011E-2,1.7362699E-1,4.6852127E-2,2.2762573E-1,1.1326019E0,2.607681E-1,3.3757666E-1,4.38529E-1,3.3397374E-1,2.2964829E-1,1.6643566E-1,3.9148014E-2,4.9937617E-2,2.2054054E-1,2.3488809E-1,2.7160725E-1,1.6564728E-1,2.2709318E-1,2.6451063E-1,2.6086956E-1,2.2222222E-1,2.914138E-1,6.75443E-2,3.5623524E-2,6.662966E-2,2.2222222E-1,-7.225634E-2,2.3809524E-1,2.0986055E-1,3.0624604E-2,5.547002E-2,2.4211709E-1,2.2298825E-1,2.1173272E-1,2.150565E-1,1.9527303E-1,2.4987802E-1,2.1173272E-1,2.5953326E-1,1.2478169E-1,1.9123282E-1,2.5257295E-1,2.1657404E-2,4.1150847E-1,2.3702273E-1,6.2017366E-2,4.540766E-2,2.6234162E-1,3.249741E-1,3.164909E-1,3.0528126E-2,3.125E-2,3.4871432E-1,3.4212866E-1,3.8829014E-1,1.8485369E-1,9.580633E-2,1.4569622E-1,9.225428E-2,-1.5543481E-2,1.7528167E-1,2.9887052E-2,1.9481817E-1,-9.058893E-2,1.5599817E-1,1.2548861E-1,2.3186451E-1,1.5788098E-1,6.249052E-2,6.0755424E-2,-4.8107103E-2,-1.4726256E-1,1.8185471E-1,1.22799605E-1,-1.4284572E-1,1.12269364E-1,-6.452498E-2,-5.0163828E-2,-1.1649226E-1,3.5618383E-2,1.2519959E-1,4.3717165E-2,-1.684434E-1,2.2769298E-1,-2.3903225E-2,1.5135686E-1,-3.6047027E-3,7.425184E-3,2.0528951E-1,2.061225E-1,-1.6081661E-2,-1.0489327E-1,4.9545597E-2,-1.5535134E-1,1.1218898E-2,-2.8815225E-2,2.8768163E-2,-9.645469E-2,2.8281006E-1,-1.1535617E-1,1.595635E-1,-1.01599745E-1,1.9444092E-1,-1.6568893E-1,-1.289079E-1,1.1624E-1,-4.104071E-2,-9.252793E-2,4.3548185E-2,-8.017169E-2,-1.515867E-1,-1.0693419E-1,7.185055E-3],"split_indices":[1,5,3,0,5,3,6,0,4,1,5,5,4,2,3,2,5,4,4,2,2,3,1,3,1,1,0,0,0,6,5,1,0,2,0,4,5,1,1,1,6,3,1,1,0,3,1,0,4,6,2,5,4,3,2,1,5,5,2,3,3,0,0,0,0,0,0,0,0,0,0,0,0,0,0,0,0,0,0,0,0,0,0,0,0,0,0,0,0,0,0,0,0,0,0,0,0,0,0,0,0,0,0,0,0,0,0,0,0,0,0,0,0,0,0,0,0,0,0],"split_type":[0,0,0,0,0,0,0,0,0,0,0,0,0,0,0,0,0,0,0,0,0,0,0,0,0,0,0,0,0,0,0,0,0,0,0,0,0,0,0,0,0,0,0,0,0,0,0,0,0,0,0,0,0,0,0,0,0,0,0,0,0,0,0,0,0,0,0,0,0,0,0,0,0,0,0,0,0,0,0,0,0,0,0,0,0,0,0,0,0,0,0,0,0,0,0,0,0,0,0,0,0,0,0,0,0,0,0,0,0,0,0,0,0,0,0,0,0,0,0],"sum_hessian":[2.9037458E3,1.6332125E3,1.2705334E3,1.2603933E3,3.728192E2,6.217748E2,6.4875867E2,8.995666E2,3.6082672E2,2.173367E2,1.5548251E2,6.8272064E1,5.535027E2,1.8861397E2,4.6014468E2,3.5396326E2,5.4560333E2,1.4809955E2,2.1272716E2,1.4919597E2,6.8140724E1,1.2931256E2,2.616995E1,5.5854156E1,1.2417903E1,4.8101163E2,7.249107E1,1.8614554E2,2.4684358E0,2.4891522E2,2.1122946E2,3.5219052E2,1.7727439E0,5.157046E2,2.989875E1,1.1337678E2,3.472277E1,2.86621E1,1.8406506E2,1.2131472E2,2.7881254E1,3.0916258E1,3.722447E1,1.26858444E2,2.4541209E0,1.0040372E1,1.612958E1,3.1255259E1,2.45989E1,3.1887107E0,9.229192E0,4.161883E1,4.3939282E2,2.4722228E0,7.0018845E1,1.0432939E1,1.757126E2,3.5707615E1,2.1320761E2,1.1207893E2,9.915053E1,3.4615143E2,6.039069E0,4.4652078E2,6.9183815E1,1.7152418E1,1.2746332E1,9.427103E1,1.9105751E1,2.864223E1,6.080543E0,1.3806008E1,1.4856092E1,4.3370483E1,1.4069458E2,1.023501E2,1.8964619E1,1.3775486E0,2.6503706E1,4.9487658E0,2.5967493E1,2.4849974E1,1.23744955E1,8.16257E1,4.5232742E1,1.1997535E0,1.2543675E0,4.781223E0,5.259149E0,6.9496956E0,9.179884E0,1.3655029E1,1.760023E1,2.80284E0,2.1796059E1,1.4425066E0,1.7462041E0,6.920567E0,2.3086252E0,3.0380438E1,1.1238395E1,1.7796594E2,2.6142688E2,1.2265528E0,1.24567E0,6.8821045E1,1.1978014E0,9.325748E0,1.1071904E0,1.2874147E2,4.6971123E1,1.8673897E1,1.7033718E1,1.9914871E2,1.4058891E1,1.6895233E1,9.51837E1,8.1487404E1,1.7663124E1],"tree_param":{"num_deleted":"0","num_feature":"7","num_nodes":"119","size_leaf_vector":"1"}},{"base_weights":[9.6880674E-2,-3.4028932E-1,3.3232963E-1,-4.786924E-1,-1.9667313E-1,3.7441573E-1,-3.6642152E-1,-5.503909E-1,-4.0879938E-1,-3.1298015E-2,-3.5446122E-1,2.532049E-1,5.172852E-1,-2.2204834E-1,-5.293233E-1,-1.6618729E-1,1.652629E-2,-3.1382143E-1,-4.7968075E-1,-1.12794094E-1,1.7335825E-1,-2.72678E-1,-4.8371926E-1,3.5072377E-1,1.540728E-1,5.71725E-1,3.9670494E-1,-2.898949E-1,7.626236E-1,-1.6374272E-1,-7.2155413E-3,-4.1644192E-1,-3.5094213E-2,-5.0146747E-1,-9.683015E-2,4.6200538E-1,-1.3337462E-1,4.9242008E-1,7.437401E-2,-3.134256E-1,2.1513183E-1,-5.0766206E-1,-1.436019E-1,2.4861276E-1,5.112274E-1,-4.7156283E-1,1.8709765E-1,4.9645424E-1,6.187418E-1,-2.5146005E-1,4.098071E-1,-3.4831163E-1,2.1554707E-1,2.8388137E-1,4.1140676E-2,-1.4859891E-1,-1.854925E-2,1.9972008E-1,-5.008955E-2,-1.5601218E-1,-8.463024E-3,1.343336E-1,-1.06931955E-1,-1.0444677E-1,2.3051545E-1,-1.1403885E-1,-2.3798237E-2,-6.27637E-2,2.2621702E-1,-4.4273406E-2,1.318986E-1,-1.04669526E-1,1.0130566E-2,3.7019432E-1,-7.2750576E-2,-1.6068509E-1,-4.5287747E-2,4.2975612E-2,-1.309566E-1,1.1413431E-1,-2.8793724E-2,1.6432557E-1,2.235255E-2,-1.7442176E-1,-8.369788E-3,2.490749E-2,9.882247E-2,1.8576762E-1,1.2683576E-1,1.8728372E-1,5.4148175E-3,-1.6537657E-1,9.0844184E-2,1.398586E-1,8.6923376E-2,-6.0925025E-2,-1.4765254E-1,1.8935083E-1,-1.3798371E-1],"categories":[],"categories_nodes":[],"categories_segments":[],"categories_sizes":[],"default_left":[0,0,0,0,0,0,0,0,0,0,0,0,0,0,0,0,0,0,0,0,0,0,0,0,0,0,0,0,0,0,0,0,0,0,0,0,0,0,0,0,0,0,0,0,0,0,0,0,0,0,0,0,0,0,0,0,0,0,0,0,0,0,0,0,0,0,0,0,0,0,0,0,0,0,0,0,0,0,0,0,0,0,0,0,0,0,0,0,0,0,0,0,0,0,0,0,0,0,0],"id":13,"left_children":[1,3,5,7,9,11,13,15,17,19,21,23,25,27,29,-1,-1,31,33,35,37,39,41,43,45,47,49,51,53,-1,-1,55,57,59,61,63,65,67,69,71,73,75,77,79,81,83,85,87,89,91,93,95,97,-1,-1,-1,-1,-1,-1,-1,-1,-1,-1,-1,-1,-1,-1,-1,-1,-1,-1,-1,-1,-1,-1,-1,-1,-1,-1,-1,-1,-1,-1,-1,-1,-1,-1,-1,-1,-1,-1,-1,-1,-1,-1,-1,-1,-1,-1],"loss_changes":[2.9230374E2,1.9667E1,5.440982E1,2.3085785E0,1.2764542E1,3.0021515E1,2.360094E0,5.632248E-1,1.5991516E0,4.024902E0,2.515625E0,9.071342E0,5.0130615E0,4.0673084E0,3.931551E-1,0E0,0E0,3.2450686E0,1.1770554E0,2.1005778E0,2.1358511E0,3.162015E0,7.0692635E-1,7.658798E0,9.7967825E0,1.6310272E0,2.239338E0,1.6867962E0,3.281734E-1,0E0,0E0,2.296939E0,3.0463083E0,1.205246E0,1.4533955E0,1.801988E0,2.1993928E0,3.1150475E0,4.4169464E0,1.7863979E0,6.1718583E0,8.073139E-1,7.0888484E-1,1.3315178E1,2.8904724E0,1.1457686E0,6.593629E0,1.6884155E0,1.0965042E0,1.0981277E0,1.5368042E0,9.303465E-1,2.0514264E0,0E0,0E0,0E0,0E0,0E0,0E0,0E0,0E0,0E0,0E0,0E0,0E0,0E0,0E0,0E0,0E0,0E0,0E0,0E0,0E0,0E0,0E0,0E0,0E0,0E0,0E0,0E0,0E0,0E0,0E0,0E0,0E0,0E0,0E0,0E0,0E0,0E0,0E0,0E0,0E0,0E0,0E0,0E0,0E0,0E0,0E0],"parents":[2147483647,0,0,1,1,2,2,3,3,4,4,5,5,6,6,7,7,8,8,9,9,10,10,11,11,12,12,13,13,14,14,17,17,18,18,19,19,20,20,21,21,22,22,23,23,24,24,25,25,26,26,27,27,28,28,31,31,32,32,33,33,34,34,35,35,36,36,37,37,38,38,39,39,40,40,41,41,42,42,43,43,44,44,45,45,46,46,47,47,48,48,49,49,50,50,51,51,52,52],"right_children":[2,4,6,8,10,12,14,16,18,20,22,24,26,28,30,-1,-1,32,34,36,38,40,42,44,46,48,50,52,54,-1,-1,56,58,60,62,64,66,68,70,72,74,76,78,80,82,84,86,88,90,92,94,96,98,-1,-1,-1,-1,-1,-1,-1,-1,-1,-1,-1,-1,-1,-1,-1,-1,-1,-1,-1,-1,-1,-1,-1,-1,-1,-1,-1,-1,-1,-1,-1,-1,-1,-1,-1,-1,-1,-1,-1,-1,-1,-1,-1,-1,-1,-1],"split_conditions":[2.4913643E-1,2.0589808E-1,4.8019603E-1,1.6666667E-1,6.633581E-2,3.1225467E-1,7.1913856E-1,2.2887333E-1,6.324555E-2,2.4325213E-1,2.6923078E-1,4.756515E-2,6.127795E-2,6.9652605E-1,3.9825153E-1,-1.6618729E-1,1.652629E-2,4.9937617E-2,2.3702273E-1,2.0640628E-1,2.4978326E-1,2.2477613E-1,2.7681828E-1,3.8433123E-2,4.975186E-2,3.4212866E-1,2.6836944E-1,3.6791185E-1,3.0406058E-1,-1.6374272E-1,-7.2155413E-3,5.5027347E-2,5.150262E-2,2.4253562E-1,1.9754592E-1,1.904762E-1,2.1023533E-1,2.6028961E-2,2.660899E-1,2.5705203E-1,2.3862095E-1,2.4519655E-1,4.5746696E-1,3.002854E-2,3.0769232E-1,4.975186E-2,2.8553224E-1,2.8467048E-2,8.286708E-2,3.181818E-1,3.4668761E-1,2.9422772E-1,3.778268E-1,2.8388137E-1,4.1140676E-2,-1.4859891E-1,-1.854925E-2,1.9972008E-1,-5.008955E-2,-1.5601218E-1,-8.463024E-3,1.343336E-1,-1.06931955E-1,-1.0444677E-1,2.3051545E-1,-1.1403885E-1,-2.3798237E-2,-6.27637E-2,2.2621702E-1,-4.4273406E-2,1.318986E-1,-1.04669526E-1,1.0130566E-2,3.7019432E-1,-7.2750576E-2,-1.6068509E-1,-4.5287747E-2,4.2975612E-2,-1.309566E-1,1.1413431E-1,-2.8793724E-2,1.6432557E-1,2.235255E-2,-1.7442176E-1,-8.369788E-3,2.490749E-2,9.882247E-2,1.8576762E-1,1.2683576E-1,1.8728372E-1,5.4148175E-3,-1.6537657E-1,9.0844184E-2,1.398586E-1,8.6923376E-2,-6.0925025E-2,-1.4765254E-1,1.8935083E-1,-1.3798371E-1],"split_indices":[0,0,4,0,4,3,4,2,6,3,5,6,4,6,3,0,0,6,2,0,3,6,1,6,6,3,0,3,2,0,0,4,6,1,3,2,1,6,1,3,6,0,4,6,1,4,0,4,5,3,1,1,0,0,0,0,0,0,0,0,0,0,0,0,0,0,0,0,0,0,0,0,0,0,0,0,0,0,0,0,0,0,0,0,0,0,0,0,0,0,0,0,0,0,0,0,0,0,0],"split_type":[0,0,0,0,0,0,0,0,0,0,0,0,0,0,0,0,0,0,0,0,0,0,0,0,0,0,0,0,0,0,0,0,0,0,0,0,0,0,0,0,0,0,0,0,0,0,0,0,0,0,0,0,0,0,0,0,0,0,0,0,0,0,0,0,0,0,0,0,0,0,0,0,0,0,0,0,0,0,0,0,0,0,0,0,0,0,0,0,0,0,0,0,0,0,0,0,0,0,0],"sum_hessian":[2.8376982E3,9.931749E2,1.8445234E3,5.0457867E2,4.8859625E2,1.740176E3,1.0434744E2,2.4567883E2,2.588998E2,2.3914777E2,2.494485E2,9.429485E2,7.972275E2,5.6572567E1,4.7774876E1,2.443247E2,1.3541356E0,1.1296246E2,1.4593736E2,1.713596E2,6.778817E1,1.5468614E2,9.476235E1,4.7406268E2,4.688858E2,5.466731E2,2.505544E2,5.358594E1,2.9866238E0,4.6187656E1,1.5872189E0,8.220319E1,3.075927E1,1.3778658E2,8.150778E0,5.181978E0,1.6617761E2,1.5109635E1,5.267853E1,1.4309099E2,1.1595158E1,8.807E1,6.692354E0,2.9129337E2,1.8276932E2,2.2843847E1,4.4604196E2,2.1462776E2,3.3204535E2,4.603944E0,2.4595045E2,4.831302E1,5.2729254E0,1.9123054E0,1.0743184E0,6.691932E1,1.5283881E1,4.23009E0,2.6529179E1,1.3248817E2,5.298397E0,2.3971744E0,5.7536035E0,1.3845218E0,3.797456E0,2.8774235E1,1.3740338E2,4.1584E0,1.0951235E1,3.3138996E1,1.9539536E1,1.2982216E2,1.3268833E1,3.0680935E0,8.527063E0,8.1204414E1,6.865585E0,3.639337E0,3.0530171E0,2.1061256E2,8.068081E1,1.6842876E2,1.4340567E1,1.806165E1,4.7821984E0,2.5854767E2,1.874943E2,7.771208E1,1.3691568E2,3.2897357E2,3.0717883E0,2.991403E0,1.6125407E0,1.6539061E2,8.055984E1,2.52426E1,2.3070417E1,3.30501E0,1.9679153E0],"tree_param":{"num_deleted":"0","num_feature":"7","num_nodes":"99","size_leaf_vector":"1"}},{"base_weights":[-2.6393214E-1,-5.016684E-1,2.8242758E-1,-5.458389E-1,-2.537073E-1,4.87321E-2,3.7284175E-1,-5.464999E-1,-2.7205375E-1,-1.2747204E-1,-3.8560197E-1,5.4324144E-1,-3.7658464E-2,2.5223273E-1,4.1085005E-1,-1.6432516E-1,-3.8526204E-1,5.836774E-2,-1.3052683E-1,-1.7399709E-1,4.5083302E-1,-4.2411673E-1,-1.000292E-2,-3.269095E-1,6.608563E-1,9.2962794E-2,-2.0060973E-1,6.780415E-1,1.9548176E-1,4.3034267E-1,1.7000575E-1,-1.5668628E-1,7.654382E-2,-5.8451198E-2,-3.4164935E-1,9.157336E-1,-1.15753934E-1,-5.173024E-1,-3.472744E-1,2.7974468E-1,-3.3552364E-1,1.10802585E-2,-1.4579861E-1,2.3237637E-1,2.1818008E-1,-1.1148735E-1,2.6136017E-1,-2.8858402E-1,4.1863687E-2,2.1497783E-1,6.522502E-2,-3.0802754E-1,2.4477342E-1,3.9678347E-1,5.558209E-1,-1.106966E-1,4.0989304E-1,1.4830375E-1,-1.043398E-1,2.3158489E-1,-2.6198907E-2,5.6304406E-2,-1.2093788E-1,1.8605022E-2,3.5587645E-1,-1.3584119E-1,1.1491164E-1,-1.6614714E-1,-3.068251E-2,1.0085078E-1,-1.3787735E-1,-2.3624146E-2,1.2912796E-1,4.965014E-2,-1.419108E-1,-1.5866974E-1,1.9821881E-1,2.699376E-3,-1.21287E-1,1.4586613E-1,3.3121627E-2,-5.1479686E-2,-1.6033615E-1,2.3434992E-1,-1.023816E-1,-1.4368892E-1,2.6574459E-2,-1.0667524E-1,8.1084006E-2,1.2573345E-1,3.5871614E-2,1.8539253E-1,1.0949076E-1,3.6461543E-2,-1.5437111E-1,-4.6579186E-3,1.681978E-1],"categories":[],"categories_nodes":[],"categories_segments":[],"categories_sizes":[],"default_left":[0,0,0,0,0,0,0,0,0,0,0,0,0,0,0,0,0,0,0,0,0,0,0,0,0,0,0,0,0,0,0,0,0,0,0,0,0,0,0,0,0,0,0,0,0,0,0,0,0,0,0,0,0,0,0,0,0,0,0,0,0,0,0,0,0,0,0,0,0,0,0,0,0,0,0,0,0,0,0,0,0,0,0,0,0,0,0,0,0,0,0,0,0,0,0,0,0],"id":14,"left_children":[1,3,5,7,9,11,13,15,17,19,21,23,25,27,29,-1,31,-1,-1,33,35,37,39,41,43,45,47,49,51,53,55,-1,57,59,61,63,65,67,69,71,73,-1,-1,-1,75,77,79,81,83,-1,-1,85,87,89,91,93,95,-1,-1,-1,-1,-1,-1,-1,-1,-1,-1,-1,-1,-1,-1,-1,-1,-1,-1,-1,-1,-1,-1,-1,-1,-1,-1,-1,-1,-1,-1,-1,-1,-1,-1,-1,-1,-1,-1,-1,-1],"loss_changes":[2.8875256E2,1.682306E1,1.4230148E1,8.905029E-2,3.8805695E0,8.106016E0,2.1246033E0,5.3009033E-2,4.7682837E-1,3.363429E0,1.65835E0,3.1033287E0,3.4679215E0,2.744649E0,1.6545181E0,0E0,8.9105177E-1,0E0,0E0,2.1830218E0,2.5739956E0,5.6661224E-1,1.1986434E0,2.511166E-1,1.0989037E0,3.1495206E0,1.5568995E0,8.565855E-2,2.7177773E0,1.21035E0,2.0121176E0,0E0,8.7218374E-1,1.7108147E0,1.578856E0,1.1409483E0,1.0326444E0,6.2630844E-1,4.77249E0,3.9811182E-1,4.896571E-1,0E0,0E0,0E0,2.5116265E0,1.4724698E0,1.6434124E0,1.4403944E0,5.975126E0,0E0,0E0,7.160429E-1,1.589603E0,1.6309357E0,5.9542084E-1,1.3987392E0,1.0324476E0,0E0,0E0,0E0,0E0,0E0,0E0,0E0,0E0,0E0,0E0,0E0,0E0,0E0,0E0,0E0,0E0,0E0,0E0,0E0,0E0,0E0,0E0,0E0,0E0,0E0,0E0,0E0,0E0,0E0,0E0,0E0,0E0,0E0,0E0,0E0,0E0,0E0,0E0,0E0,0E0],"parents":[2147483647,0,0,1,1,2,2,3,3,4,4,5,5,6,6,7,7,8,8,9,9,10,10,11,11,12,12,13,13,14,14,16,16,19,19,20,20,21,21,22,22,23,23,24,24,25,25,26,26,27,27,28,28,29,29,30,30,32,32,33,33,34,34,35,35,36,36,37,37,38,38,39,39,40,40,44,44,45,45,46,46,47,47,48,48,51,51,52,52,53,53,54,54,55,55,56,56],"right_children":[2,4,6,8,10,12,14,16,18,20,22,24,26,28,30,-1,32,-1,-1,34,36,38,40,42,44,46,48,50,52,54,56,-1,58,60,62,64,66,68,70,72,74,-1,-1,-1,76,78,80,82,84,-1,-1,86,88,90,92,94,96,-1,-1,-1,-1,-1,-1,-1,-1,-1,-1,-1,-1,-1,-1,-1,-1,-1,-1,-1,-1,-1,-1,-1,-1,-1,-1,-1,-1,-1,-1,-1,-1,-1,-1,-1,-1,-1,-1,-1,-1],"split_conditions":[2.7535373E-1,1.3130644E-1,4.0694606E-1,1.6641006E-1,2.4733877E-1,2.7607882E-1,5.0614816E-1,1.24756575E-1,1.1094004E-1,2.3851453E-1,3.6496127E-1,2.4087441E-1,2.4862024E-1,3.834825E-1,3.474978E-1,-1.6432516E-1,2.8674418E-1,5.836774E-2,-1.3052683E-1,2.1023533E-1,2.4171671E-1,2.8609028E-1,3.7908503E-1,2.2475645E-1,2.6689488E-1,2.0549874E-1,3.164909E-1,3.15353E-1,1.4285715E-1,2.8885394E-1,3.5401145E-1,-1.5668628E-1,1.2797134E-1,9.834744E-2,1.234662E-1,2.3592836E-1,2.4402983E-1,2.607681E-1,2.846569E-1,3.5401145E-1,3.7120062E-1,1.10802585E-2,-1.4579861E-1,2.3237637E-1,2.980881E-1,1.8856181E-1,2.2054054E-1,3.0575576E-1,3.0375865E-1,2.1497783E-1,6.522502E-2,4.8343343E-1,4.16874E-1,2.7681828E-1,3.1785363E-1,9.399091E-1,6.344684E-1,1.4830375E-1,-1.043398E-1,2.3158489E-1,-2.6198907E-2,5.6304406E-2,-1.2093788E-1,1.8605022E-2,3.5587645E-1,-1.3584119E-1,1.1491164E-1,-1.6614714E-1,-3.068251E-2,1.0085078E-1,-1.3787735E-1,-2.3624146E-2,1.2912796E-1,4.965014E-2,-1.419108E-1,-1.5866974E-1,1.9821881E-1,2.699376E-3,-1.21287E-1,1.4586613E-1,3.3121627E-2,-5.1479686E-2,-1.6033615E-1,2.3434992E-1,-1.023816E-1,-1.4368892E-1,2.6574459E-2,-1.0667524E-1,8.1084006E-2,1.2573345E-1,3.5871614E-2,1.8539253E-1,1.0949076E-1,3.6461543E-2,-1.5437111E-1,-4.6579186E-3,1.681978E-1],"split_indices":[5,5,5,6,0,6,5,5,5,0,1,4,3,6,0,0,2,0,0,2,0,3,0,4,2,1,1,2,2,1,3,0,6,0,6,1,1,5,0,3,3,0,0,0,1,2,2,0,2,0,0,5,4,0,2,5,5,0,0,0,0,0,0,0,0,0,0,0,0,0,0,0,0,0,0,0,0,0,0,0,0,0,0,0,0,0,0,0,0,0,0,0,0,0,0,0,0],"split_type":[0,0,0,0,0,0,0,0,0,0,0,0,0,0,0,0,0,0,0,0,0,0,0,0,0,0,0,0,0,0,0,0,0,0,0,0,0,0,0,0,0,0,0,0,0,0,0,0,0,0,0,0,0,0,0,0,0,0,0,0,0,0,0,0,0,0,0,0,0,0,0,0,0,0,0,0,0,0,0,0,0,0,0,0,0,0,0,0,0,0,0,0,0,0,0,0,0],"sum_hessian":[2.220972E3,1.5476349E3,6.733371E2,1.3126118E3,2.3502296E2,1.8826451E2,4.850726E2,1.3084567E3,4.155177E0,1.21092674E2,1.1393028E2,2.7211962E1,1.6105255E2,1.1806422E2,3.6700836E2,1.2960072E3,1.2449512E1,1.0258398E0,3.1293373E0,1.12723145E2,8.36953E0,1.0321701E2,1.0713274E1,3.028285E0,2.4183678E1,8.963273E1,7.141983E1,1.2597337E1,1.0546688E2,3.3880087E2,2.8207504E1,9.499796E0,2.9497159E0,6.7530075E1,4.519307E1,4.25882E0,4.11071E0,4.4057297E1,5.9159714E1,5.7424846E0,4.97079E0,1.154857E0,1.873428E0,1.864393E1,5.539747E0,4.0635445E1,4.899728E1,5.226636E1,1.915347E1,1.1111666E1,1.4856703E0,8.936129E0,9.6530754E1,2.7059286E2,6.8208E1,1.3246158E1,1.4961346E1,1.4031894E0,1.5465263E0,1.4047766E0,6.61253E1,4.4889817E0,4.0704086E1,1.3205733E0,2.9382467E0,2.5081046E0,1.6026055E0,4.018655E1,3.8707461E0,8.0687275E0,5.1090984E1,1.8406743E0,3.9018104E0,1.0266553E0,3.9441345E0,1.9882354E0,3.551512E0,2.9475748E1,1.1159698E1,1.8788782E1,3.0208498E1,3.65661E1,1.5700258E1,6.183276E0,1.2970192E1,6.0996013E0,2.836527E0,3.406639E0,9.3124115E1,2.499488E2,2.0644049E1,4.9763626E1,1.8444374E1,8.854005E0,4.392153E0,4.14954E0,1.0811807E1],"tree_param":{"num_deleted":"0","num_feature":"7","num_nodes":"97","size_leaf_vector":"1"}},{"base_weights":[9.544338E-2,2.5545484E-1,-1.9178031E-1,3.3422711E-1,-1.0351388E-2,-6.8993144E-2,-3.3020017E-1,4.6671158E-1,2.0590928E-1,9.0355985E-2,-1.5355639E-1,4.98795E-1,-9.761737E-2,-4.688041E-1,-2.6892763E-1,5.674714E-1,3.980857E-1,5.6476694E-2,2.8869125E-1,-2.620779E-1,1.260459E-1,-5.622205E-2,-3.087403E-1,-3.6782664E-1,8.898631E-1,-1.2026723E-1,6.3593876E-1,1.2228548E-1,-4.8853537E-1,-2.8914458E-1,1.6985762E-1,5.704017E-1,7.0297025E-4,4.2587322E-1,5.1666744E-2,1.744283E-1,-3.8484946E-1,2.6329714E-1,6.44465E-1,1.13074735E-1,-4.175869E-1,